%YAML:1.0
---
opencv_ml_ann_mlp:
   format: 3
   layer_sizes: [ 72, 24, 10 ]
   activation_function: SIGMOID_SYM
   f_param1: 6.6666666666666663e-01
   f_param2: 1.7159000000000000e+00
   min_val: -9.4999999999999996e-01
   max_val: 9.4999999999999996e-01
   min_val1: -9.7999999999999998e-01
   max_val1: 9.7999999999999998e-01
   training_params:
      train_method: BACKPROP
      dw_scale: 1.0000000000000001e-01
      moment_scale: 1.0000000000000001e-01
      term_criteria:
         iterations: 5000
   input_scale:
      - 1.
      - 0.
      - 3.5894118077143219e+01
      - -4.0240684395128632e+00
      - 3.3571177946371442e+01
      - -5.4587049585551268e+00
      - 3.9107193936813751e+01
      - -5.2510941721424835e+00
      - 1.
      - 0.
      - 2.5043991772798076e+01
      - -3.7223902230304851e+00
      - 2.3881224802232147e+01
      - -4.1846263655601161e+00
      - 2.6187126281058074e+01
      - -4.4923526010980970e+00
      - 1.
      - 0.
      - 2.5806795384036747e+01
      - -3.7728479641766115e+00
      - 2.4304460804333640e+01
      - -4.2384486049787276e+00
      - 2.5136361408040401e+01
      - -4.2525640225691124e+00
      - 1.
      - 0.
      - 3.2461162899085394e+01
      - -3.5107505262364223e+00
      - 2.5240575280856028e+01
      - -4.1926497089034109e+00
      - 3.2077254308874281e+01
      - -4.2976612924682653e+00
      - 2.1433715746202356e-02
      - -1.5952257281268565e+00
      - 1.8314485824335161e-02
      - -2.4864112244833900e+00
      - 2.6772841065538861e-02
      - -4.4755087495618691e+00
      - 2.4754448693276389e-02
      - -1.9350057454560290e+00
      - 2.5730615341044795e-02
      - -1.8277999913664580e+00
      - 1.9419119985313912e-02
      - -2.6665947181433363e+00
      - 2.0362252879998370e-02
      - -2.8019274452992962e+00
      - 2.2766831750214909e-02
      - -2.0261114247786254e+00
      - 2.6386736382564328e-02
      - -1.9148326858099280e+00
      - 1.7837512702851523e-02
      - -2.4103117414855149e+00
      - 1.8962986170134557e-02
      - -2.2878842814267344e+00
      - 2.1474980424019696e-02
      - -1.8915592257085028e+00
      - 2.7198961504325266e-02
      - -2.0379637875960834e+00
      - 1.6440894990087315e-02
      - -2.2882437647203528e+00
      - 1.9436210411170211e-02
      - -3.1093271967373659e+00
      - 2.1743683952679435e-02
      - -1.8777410587854908e+00
      - 2.3589381186429288e-02
      - -1.7666087570516895e+00
      - 1.7063142959785265e-02
      - -2.1240541619199895e+00
      - 2.0308571437339083e-02
      - -2.9482359327013894e+00
      - 2.0083413363379311e-02
      - -2.0605180442559905e+00
      - 2.2197416651995257e-02
      - -1.7779686789915161e+00
      - 1.6598654703528455e-02
      - -1.8590161294857801e+00
      - 1.6537214037291529e-02
      - -1.9978608278451897e+00
      - 1.8369478953992865e-02
      - -2.0548833937094582e+00
      - 2.5424156798988722e-02
      - -1.9494226467192592e+00
      - 1.9217164385361904e-02
      - -2.3635959164132019e+00
      - 2.0562926052350942e-02
      - -2.7546918256771415e+00
      - 2.0345112800797732e-02
      - -2.0069639973474933e+00
      - 3.2010951770082466e-02
      - -1.9539484960458338e+00
      - 1.7828496160469640e-02
      - -2.3567489074524817e+00
      - 2.0650059946963215e-02
      - -3.1396351143362868e+00
      - 3.0444355161667332e-02
      - -2.1511372470130903e+00
      - 1.
      - -1.
      - 1.
      - -1.
      - 1.
      - -1.
      - 1.
      - -1.
      - 1.
      - -1.
      - 1.
      - -1.
      - 1.
      - -1.
      - 1.
      - -1.
      - 1.
      - -1.
      - 1.
      - -1.
      - 1.
      - -1.
      - 1.
      - -1.
      - 1.
      - -1.
      - 1.
      - -1.
      - 1.
      - -1.
      - 1.
      - -1.
      - 1.
      - -1.
      - 1.
      - -1.
      - 1.
      - -1.
      - 1.
      - -1.
      - 1.
      - -1.
      - 1.
      - -1.
      - 1.
      - -1.
      - 1.
      - -1.
   output_scale:
      - 5.2631578947368418e-01
      - 4.9999999999999994e-01
      - 5.2631578947368418e-01
      - 4.9999999999999994e-01
      - 5.2631578947368418e-01
      - 4.9999999999999994e-01
      - 5.2631578947368418e-01
      - 4.9999999999999994e-01
      - 5.2631578947368418e-01
      - 4.9999999999999994e-01
      - 5.2631578947368418e-01
      - 4.9999999999999994e-01
      - 5.2631578947368418e-01
      - 4.9999999999999994e-01
      - 5.2631578947368418e-01
      - 4.9999999999999994e-01
      - 5.2631578947368418e-01
      - 4.9999999999999994e-01
      - 5.2631578947368418e-01
      - 4.9999999999999994e-01
   inv_output_scale:
      - 1.8999999999999999e+00
      - -9.4999999999999996e-01
      - 1.8999999999999999e+00
      - -9.4999999999999996e-01
      - 1.8999999999999999e+00
      - -9.4999999999999996e-01
      - 1.8999999999999999e+00
      - -9.4999999999999996e-01
      - 1.8999999999999999e+00
      - -9.4999999999999996e-01
      - 1.8999999999999999e+00
      - -9.4999999999999996e-01
      - 1.8999999999999999e+00
      - -9.4999999999999996e-01
      - 1.8999999999999999e+00
      - -9.4999999999999996e-01
      - 1.8999999999999999e+00
      - -9.4999999999999996e-01
      - 1.8999999999999999e+00
      - -9.4999999999999996e-01
   weights:
      -
         - -2.2738061913855821e-02
         - -1.4421773000516057e-02
         - -5.3365731113608839e-03
         - 1.8782377050582250e-02
         - 6.3346032358510161e-03
         - -2.7744191588407078e-02
         - 5.3179131065701594e-03
         - 1.0939247103050402e-02
         - 6.3089998041414947e-03
         - 1.9078145617109936e-03
         - 3.0558476416668923e-02
         - -2.3433771676389442e-03
         - 2.5556652061213395e-02
         - 1.2060478786534867e-04
         - -1.1395952424012083e-02
         - 1.8806690121459694e-02
         - -7.2893479970020277e-03
         - 1.2662389149049073e-02
         - -2.0695694775703245e-02
         - -1.7482313546332881e-03
         - -2.0993728995444459e-02
         - -1.6615452219301136e-02
         - -1.4566390737380100e-02
         - 4.1216830368992477e-03
         - 7.9819217215057570e-01
         - -1.3251948353764925e-01
         - 2.3976513874983868e-01
         - -6.7589190262109811e-01
         - -9.6668919661778291e-02
         - -1.1280420426767770e-01
         - 3.8920089225013610e-01
         - 8.6669688134151357e-01
         - 3.3135342625981701e-01
         - 8.3263512085999458e-01
         - -2.8330266838632573e-01
         - -6.5967846553378306e-01
         - 2.9816893177819881e-01
         - 4.0171689335211591e-01
         - 2.0057000973600586e-01
         - 9.5538741876229083e-01
         - 8.5277333742192440e-01
         - -1.1906502796948568e-01
         - -2.8171211206341529e-01
         - 1.3254316292397852e-01
         - 6.8820832404885568e-01
         - -4.1301914131141154e-01
         - -1.6705892890769961e-01
         - -5.8420113238726101e-01
         - 1.4787942355578305e+00
         - -3.9586653758546597e-01
         - -5.3567568283462053e-01
         - -1.0772828005762423e+00
         - -9.9653110597748384e-01
         - -4.8171919334164032e-01
         - 4.0707824802557518e-01
         - 4.2987814354703624e-01
         - 7.9227887814777198e-01
         - 2.3553272480509782e-01
         - 8.3903513428117540e-02
         - 5.0539581579048276e-01
         - -3.7592531628521053e-01
         - -1.1003999179305164e+00
         - -6.2709271027526503e-01
         - 1.1210851503274191e+00
         - 1.0238674890346462e+00
         - -5.7908019592838311e-01
         - -5.2624042365869761e-01
         - -1.9453622183617336e-01
         - -6.4007540144605968e-02
         - -5.5096301064861630e-01
         - 8.0144731086255894e-01
         - -4.2597707402053686e-01
         - -6.7706488286880778e-02
         - 1.9510966795087731e-01
         - -5.4052822953366420e-01
         - 4.8235685094128661e-01
         - 7.4643638818224767e-01
         - 2.9516272800965476e-01
         - 2.9468853232437803e-01
         - -3.0398181857200157e-01
         - 6.4263624553058885e-01
         - -1.7133169698821604e-01
         - 1.1513285720013315e-01
         - -2.2835526110829454e-01
         - -3.1452852072027374e-02
         - -5.0193373920139706e-01
         - 8.2835898993269666e-02
         - 3.6153820601572861e-01
         - 6.5887424928735039e-01
         - 6.6396917766703686e-02
         - -3.9398790144517770e-01
         - -3.3179863955360550e-01
         - 5.2896498896674038e-01
         - 6.1692099099930309e-01
         - 4.2985966761993949e-01
         - -3.0105842494392077e-01
         - -2.0820843655496628e-02
         - -1.2222049321688825e-02
         - 2.1519448208273926e-02
         - 1.6840342266743646e-02
         - -7.0009963513963155e-03
         - -2.0643122304342724e-02
         - 7.2858512034348665e-03
         - 1.9787367539189030e-02
         - 2.4732091333244145e-02
         - 1.2496485487351962e-02
         - 1.3517621535217517e-02
         - -1.2789039884794564e-02
         - 1.7068908086152541e-02
         - 1.5853844614296769e-02
         - 9.2605002776183429e-03
         - 1.2814059172188643e-02
         - 2.4824760051060900e-03
         - 1.4072203363749569e-02
         - 1.7338355149577770e-02
         - -2.2638946674818930e-02
         - 2.2576878439247421e-02
         - -1.4474849094550364e-03
         - -5.5482722730056640e-03
         - -9.5261259099977923e-03
         - 1.1481521207194201e+00
         - -3.6770561642943878e-01
         - -2.5736224042763256e-01
         - -5.7537699433992104e-02
         - -6.1965297152135690e-01
         - 6.8933410737658729e-01
         - -4.6516284168639255e-01
         - 1.3771719028377644e-01
         - -8.5377753613726859e-01
         - 4.6248668353703049e-01
         - 9.1845325480929121e-02
         - -2.4391787077053020e-01
         - -2.4701602501519759e-01
         - -9.9914504295136070e-02
         - 7.5097293669853937e-01
         - 1.0704914308653266e+00
         - 6.2040686803530343e-01
         - -1.1676272384318183e-01
         - 1.0211472035902198e-01
         - 3.1756513688699201e-01
         - 2.1973045061723648e-01
         - 4.1061279137355744e-01
         - 6.3050671103788425e-02
         - 3.7995235154592683e-01
         - -1.1419338689467915e+00
         - 1.2303599970147809e+00
         - 6.2767708846049120e-04
         - -1.3639626324079413e-02
         - 2.2274110897043409e+00
         - 9.9146757711134639e-02
         - 1.2481934292333231e-01
         - -5.1619080947719986e-01
         - -5.2851478220179726e-01
         - -1.1098092574805443e-01
         - 2.7996385667249968e-01
         - 5.4774648539362103e-01
         - -8.9057727557731226e-01
         - -2.1142849823471135e-01
         - -4.5621345535535668e-01
         - -8.5865976380784925e-01
         - -8.1575056883054942e-01
         - 2.0632671013915502e-02
         - -5.1578581577448857e-01
         - -1.3880902412977364e-01
         - -3.6837187985063724e-01
         - 3.0844209036323111e-01
         - 2.4726915900813651e-01
         - 7.7695105798980715e-02
         - 6.6831184839183178e-01
         - 8.8210364114074113e-01
         - -5.7478949535710289e-01
         - 6.9782215429795924e-01
         - 7.8942503045353540e-01
         - 4.5670855629278223e-01
         - -3.8619746590427673e-01
         - 8.7956024353015583e-01
         - -1.9788680430412750e-01
         - 6.2622201062786365e-01
         - -7.0825682471321350e-01
         - 1.1078116386839867e+00
         - -1.5240237977095639e-02
         - -2.4370421698335271e-01
         - 1.8157154435008910e-01
         - -6.4458767126716512e-02
         - 1.0512260319883568e+00
         - 5.0165093274555739e-01
         - 9.7653277098324742e-01
         - -7.6421918280895329e-01
         - -1.9300844742097512e-01
         - -5.2060708993211224e-01
         - -1.7810058314026757e-03
         - 4.7440083018682006e-01
         - -1.4259386815515829e-02
         - -2.0528237851726448e-02
         - 2.2527444258263842e-02
         - -2.9273368838185720e-02
         - -6.1034689239818753e-03
         - 2.2299327807531789e-02
         - 2.0813408857055057e-02
         - -8.3195557614191614e-03
         - 4.4490037630706180e-03
         - -1.4615163281682615e-02
         - -1.5204118332639171e-02
         - 6.1432765010237542e-03
         - 2.4261642133910320e-02
         - -1.2424515222286383e-02
         - -2.1783319283092798e-02
         - 6.7151966233687738e-03
         - 2.5149461776068895e-02
         - 8.3493826392184588e-04
         - -1.2822839655594350e-02
         - 2.3418137560890475e-02
         - -4.4668134360188278e-03
         - -1.1178048844283445e-02
         - 1.0742983121323059e-02
         - 6.7749498385142526e-03
         - -8.1784210877862654e-02
         - -4.5245434338846785e-01
         - 1.1826697576444921e-01
         - -1.2079379561337457e-01
         - -4.6396227077662128e-01
         - 7.9805079221694097e-01
         - 6.4692849795769147e-01
         - -2.8650838273739904e-01
         - 1.7794849064268609e-01
         - -3.4155104110000067e-01
         - 3.8853172396053065e-01
         - -2.4126895312167634e-01
         - -4.6512347615409477e-01
         - -5.1998282775594895e-01
         - 3.4029047408191188e-01
         - 6.0518600288896739e-02
         - 5.2927782145943458e-01
         - 2.0676763316433602e-01
         - -6.0698570495436310e-01
         - 7.4819030575153100e-01
         - 4.9617042479859624e-01
         - 1.1777008089986045e-01
         - 3.0411094419491153e-01
         - 2.9457335854908586e-02
         - 1.2372767439163461e+00
         - -3.4069984984920465e-01
         - 3.2286047023643022e-01
         - 1.6574376296466181e-01
         - -7.4431950202498287e-01
         - -1.2865730371974055e-01
         - 3.9938059702048329e-01
         - 3.2651755877306410e-01
         - -5.3804555380962671e-01
         - -3.2399426968259182e-01
         - -1.0481276976398264e+00
         - 4.9874665446368888e-01
         - 6.7510018809460071e-01
         - 8.8740804574331367e-01
         - -1.0113643947538979e+00
         - 2.5960841851239908e-01
         - 5.6353758685402948e-04
         - 5.5875538173292183e-01
         - 4.7502881281564568e-01
         - -2.8728814222357169e-01
         - -7.4474069965823686e-01
         - -2.0825129462563871e-01
         - -1.0348174810094368e+00
         - -3.4270173879984772e-01
         - 1.3162532672759746e+00
         - -4.4002180016582115e-01
         - 6.7980180632252052e-01
         - 8.3623653668188047e-01
         - -4.9705095915223735e-02
         - 1.5830163815854612e-01
         - 6.2682976839106408e-01
         - -5.4788829700261565e-01
         - -6.7252598319974588e-01
         - -5.7193008043981697e-01
         - 8.9229538406144515e-01
         - 2.9889098594843294e-01
         - -3.5769116167646026e-01
         - 1.5064018699065751e-01
         - 6.4130814726583618e-01
         - -1.2479011162461846e-02
         - -4.2022062418719996e-01
         - -1.4563700326868045e+00
         - 2.7847066919953040e-01
         - 1.0068527426934104e+00
         - 8.0932159204372400e-01
         - 1.7887478615638219e-01
         - -1.0419404476759475e+00
         - 1.4321703021529081e-01
         - -1.6594669087758609e-02
         - -1.3762192440410026e-02
         - 1.8067306176595386e-02
         - 1.9151404232736830e-02
         - -1.7860883543407268e-02
         - 1.0768450571342432e-03
         - 1.9988555943398351e-02
         - -7.9088497512505508e-04
         - 1.5787112968525901e-02
         - -2.7286328462359559e-02
         - -4.5663597865047796e-03
         - -1.5201619787191600e-02
         - -1.7442806054938434e-02
         - 2.3194475195498741e-02
         - 2.4013850241030980e-02
         - -8.1317296811860441e-03
         - -1.6360508170193005e-03
         - -2.6929387707895859e-02
         - 1.9415657883422744e-02
         - -1.8312518898909086e-02
         - -2.1662260086404081e-02
         - 1.1200082889568121e-02
         - -2.0207726574146156e-02
         - -3.2647442674518441e-03
         - -1.4300683543587533e-01
         - -6.9896527361298721e-01
         - 1.6322691708462816e-01
         - 1.9566541536088611e-01
         - -4.9825233488437903e-01
         - 2.9213425655898441e-02
         - 1.0813854443657858e+00
         - 1.4541500262865012e-01
         - 5.9388519148249952e-01
         - 3.2262303343871679e-01
         - -1.2369082909948520e-01
         - 1.2107903619473297e+00
         - -1.5099841130695107e-01
         - -1.0115089655302407e+00
         - 2.9218481386241008e-01
         - 1.2960269575492009e-01
         - -2.3081996592659165e-01
         - 4.9470211706456407e-01
         - -1.8591771475906751e-01
         - 6.8703692742156670e-03
         - 4.2556907653336173e-01
         - -2.9001700957134058e-01
         - 9.7811505523594511e-01
         - 9.1107909930391096e-01
         - -8.7356180844313580e-01
         - 6.7806598113586847e-01
         - 4.0883032581329620e-01
         - -7.8992322172089680e-01
         - -3.8237055055408148e-01
         - 1.0611509983033722e+00
         - -1.4371073091962319e+00
         - 9.7426423726598221e-01
         - 7.5173695734538348e-01
         - 1.2623197914868691e+00
         - 2.0458440781943232e-01
         - -1.6251156765003159e+00
         - 1.0214675046995771e+00
         - -4.1091970583073234e-01
         - 4.4598440060978106e-01
         - -5.0608618647517489e-01
         - 3.5915447299183695e-01
         - 2.7565825011258555e-01
         - 3.2575265212069465e-01
         - -6.3497202067850644e-02
         - -5.8413513849852735e-03
         - -1.1130372801194661e+00
         - 5.8742218526166723e-01
         - -1.0991337348663917e+00
         - 1.2794088704979342e-01
         - 6.7238240317797737e-02
         - 1.2317337875815437e-01
         - 1.0834324599037530e+00
         - 4.1137929852719390e-01
         - 2.0428810977988693e-01
         - 1.0385021807075152e-01
         - 1.9596410719286642e-01
         - -1.2578582118470613e-01
         - -7.6970758431795558e-02
         - 4.7742573777334291e-01
         - 9.8009612641155680e-02
         - -1.4166961615491647e-01
         - -6.1131775391250065e-01
         - 1.8093225396414100e-01
         - 7.5379331716462183e-01
         - -1.2520340898340954e-01
         - 7.2876634696237064e-01
         - -2.6864074723835396e-01
         - 1.4367437295171623e-01
         - -2.0356614050937671e-01
         - -6.8934631735581578e-02
         - 3.0902340155952229e-01
         - 8.6883565318952838e-01
         - -2.5571202096954077e-01
         - -2.7315477554996188e+00
         - -1.3121083185628855e+00
         - -2.9196274477475159e-01
         - 1.5636278711997784e+00
         - -3.1518843299638974e+00
         - 5.3778361575250655e-01
         - 7.8600364562764935e-01
         - -1.3552581004035960e+00
         - 1.7151415354885483e-01
         - 1.4531736380029963e+00
         - -4.3138055433803640e-01
         - 6.4242325530731348e+00
         - -7.8265104722734014e-01
         - 1.1319637680523265e-01
         - 7.2049960591947382e-01
         - -6.0497726724962875e-01
         - -2.2329547913479714e-01
         - 1.4591893860906873e+00
         - -4.6189685689548138e-01
         - -2.2588271954211869e+00
         - -8.1445630307164529e-01
         - -2.7454586366744822e+00
         - 2.6357451074290896e+00
         - -4.7640035653999542e+00
         - 1.1390627377501070e+00
         - 2.0402923357499416e+00
         - 7.3378852096368397e-01
         - 1.7265318582204430e+00
         - -1.8907914833679078e+00
         - -8.9333625433154029e-01
         - -3.0679286661832039e-01
         - -3.7125863602657336e+00
         - -2.1924724959647448e+00
         - 6.9820689305669181e-01
         - 3.7508521883450738e+00
         - 1.5642345246117409e-01
         - 6.7467001117232339e+00
         - -1.1770149495366142e+00
         - -1.4430534290189707e+00
         - 1.0386425037935987e+00
         - 2.1077075569550194e+00
         - 7.3480637112242297e-01
         - 6.0691560854952704e-02
         - -2.7846565670891690e+00
         - 9.0384125144101901e-01
         - -7.1426981717576128e+00
         - 9.4170421411102101e+00
         - 1.1329037477175434e+00
         - -2.1589010276360984e-01
         - -2.5586958385653058e+00
         - -1.7359607404347335e-01
         - -1.5497666221134117e+00
         - -2.1380160603045009e+00
         - 6.1588446766624028e-01
         - -6.6128405851504901e-01
         - 1.3988524927831010e+00
         - -2.7405075075467117e-01
         - -1.9169787310086289e-01
         - -5.7102572353985290e-02
         - -6.2482598904130349e-01
         - 9.0410952235385067e-01
         - 4.1035389277881673e-01
         - 6.0199476401867014e-01
         - 1.0110833171983755e+00
         - -1.9480381483669587e+00
         - 4.1053200794175176e-01
         - -6.4235995744537533e-01
         - 3.8142644061664938e-01
         - 1.2390797558364779e+00
         - 2.0317115092556770e-01
         - 1.0615495266408095e+00
         - 8.1264062246942304e-01
         - -1.1575419637912430e+00
         - -1.2154141993953640e+00
         - -1.3926598780351425e+00
         - -1.2105383677645187e+00
         - -1.0806649246942048e+00
         - -6.7508146604171648e-01
         - 6.4308504981206116e-01
         - 2.1335959762479662e+00
         - 2.8729191402754091e+00
         - 4.1086819851206622e+00
         - -6.9089759183897055e+00
         - 7.1360942995345491e+00
         - -1.8490531407431483e+00
         - -3.3390318586802095e+00
         - -3.2315889497541987e+00
         - -4.5301352721155302e-01
         - -3.1017484971430163e+00
         - 4.9874723823860787e+00
         - -2.1372736129111200e-01
         - -2.5158694789598157e+00
         - -1.1296796991045575e+00
         - -2.3768720888089834e+00
         - -6.8836530447515196e+00
         - -2.3750561607068277e+00
         - -1.6359246822166640e+00
         - 5.9005020272499364e-01
         - -3.0973873310261768e-01
         - -3.0812400177574117e+00
         - 1.3107899638337173e-01
         - -5.9834967185351351e-01
         - -1.4992823214483020e-01
         - 4.9885085523378248e+00
         - -6.8920237907863979e-01
         - 3.0673154957773430e+00
         - 1.6257245986590350e+00
         - -1.5998293142759961e+00
         - -3.2790144983171685e+00
         - 1.7736555496529569e+00
         - -1.1705313607183701e+00
         - 9.7790456250829771e-01
         - 9.6681826980455976e-01
         - 2.1980979100332818e+00
         - 5.6675342605929269e-01
         - -5.5006284882997580e-01
         - -3.7120435468837709e-01
         - -2.4611235015573723e+00
         - 5.4252641013889225e-01
         - 1.1614423588489708e+00
         - -1.6432287168754569e+00
         - -1.4611326864848442e+00
         - -1.8186289737569972e+00
         - -1.9338462520914335e+00
         - 8.3421852242445704e-01
         - 3.4947507802640992e-01
         - 4.9190043878300810e-01
         - 2.9244179323745207e+00
         - 1.0869686297074417e+00
         - 3.9317024600767270e+00
         - 2.2065009258376649e+00
         - -3.0462517893243422e+00
         - 4.7174104518234417e-01
         - -1.9441051660368640e+00
         - -1.0635298033226313e+00
         - 7.2996995329193265e-02
         - 2.0453342269180173e+00
         - 4.9060416533914269e-01
         - 4.2421318247671852e-01
         - -2.1017781579558051e-01
         - -9.5138838980136897e-01
         - 1.6408182822468684e-01
         - 5.8828324450001466e+00
         - -6.8137095125813092e+00
         - -1.0110151077379030e+00
         - -1.2756396539577159e+00
         - -2.8833757361678685e+00
         - 2.1228168999167987e-01
         - -4.0486108776022185e+00
         - 2.2127396871901959e+00
         - 2.0433084715691152e-01
         - 3.0716059167256691e+00
         - 6.0958492833040834e-01
         - 3.3529545010563986e+00
         - -2.8028914901673372e+00
         - 2.8098245987012094e+00
         - -6.0344611065329047e-02
         - -3.2573025846342833e+00
         - -2.8269828231790988e+00
         - -2.0725245288933598e+00
         - -3.2397841508858525e+00
         - -1.5370422112465645e+00
         - 4.2747509799329148e-01
         - -3.1398601597453148e+00
         - 8.6987541967815674e-01
         - 1.2796804747709800e+00
         - -1.7638934217187854e+00
         - -2.7652614828138309e+00
         - -5.9715915795805397e-01
         - -1.8105634484412600e+00
         - -2.8145636942414489e+00
         - -1.5413841778712096e+00
         - -2.5984029045925148e+00
         - -9.5599805614125122e-02
         - 1.5692782879303488e+00
         - -2.4914260032183320e+00
         - 3.6498323179601183e-01
         - 5.1672098807622768e-01
         - -1.7177464055442100e+00
         - 1.6141716166579356e-01
         - 3.6279352632490203e+00
         - -2.8848126113569146e+00
         - -2.6508462829670107e+00
         - 1.0811273161290613e-01
         - -2.9459063175113065e+00
         - 9.4570303251975096e-01
         - -4.1887103975563977e-01
         - -2.5123205718392385e+00
         - -5.8263788662671134e-01
         - -2.1038483492987874e+00
         - -2.9197535758858986e+00
         - -1.5088694321056778e-01
         - -2.3365483966581571e+00
         - -2.9575765436161305e-01
         - 2.0965515995242576e-01
         - -3.0675891921341263e+00
         - 2.8823791926953795e+00
         - -4.4380042729849989e-01
         - -1.0296093232757122e+00
         - 1.2050711913268188e+00
         - 4.1277712310250603e-01
         - 3.3638164874360732e+00
         - -1.3704715448813731e-01
         - -1.2439189572135261e+00
         - 1.4069603638524217e+00
         - -6.2328322550778059e-01
         - -5.7476132201779762e-01
         - 1.0811348216328951e+00
         - 1.0227094289270089e-01
         - 1.4576251269931384e+00
         - 3.4248297690823853e-01
         - 3.4806025977107635e-01
         - 8.7687197521857288e-02
         - 1.3658008110025217e+00
         - 2.0264552885526022e+00
         - -5.1822745455655106e-01
         - -2.2269562247937356e+00
         - -7.6093757385845884e-01
         - 8.2554105470059636e-01
         - -7.1695871998692695e-01
         - 1.0372341151061799e+00
         - 7.5434769545941371e-01
         - -2.2698277130964567e-01
         - 2.9402839729657475e+00
         - 4.6155488102729597e-01
         - -4.2982920890605536e+00
         - 6.1563418748172616e-01
         - -4.5510911820034650e-01
         - -3.9158894144871694e+00
         - -1.8576351775609848e-01
         - 2.8575078101458948e+00
         - 5.2689610022454891e-01
         - 4.7412858016448682e+00
         - -1.7358863825495110e+00
         - 4.0690941923440926e-01
         - 2.0302802284336714e+00
         - 1.3046786703111097e+00
         - 2.9045030343537843e+00
         - -1.3801138528351413e+00
         - -2.4381902913688829e+00
         - 2.2864898714637066e-01
         - -3.3063824885881381e+00
         - 8.4531614730164062e-01
         - 6.7421913119800325e-01
         - -4.0782624835500787e+00
         - 6.0315127859568451e-01
         - -1.6321211683711984e-01
         - 1.8633587723010152e+00
         - 5.9432767629801642e-01
         - -1.2490838829138775e+00
         - -9.2486625664588651e-02
         - 2.2244725481056191e+00
         - 2.3591657306308549e+00
         - -2.7169016889525470e+00
         - -3.3141794147553778e+00
         - -2.2870351548355783e-01
         - -1.1308002567489297e+00
         - -4.5804622775248566e-01
         - -6.6859938638596073e-01
         - -3.0064445609197263e+00
         - 1.1874194673248637e+00
         - -3.8278156189466963e+00
         - -6.8266641830982341e-02
         - -1.7793672253568142e+00
         - -1.4871341200863848e+00
         - -2.5008363908816600e+00
         - -1.9297935834337601e+00
         - -4.6912970546981603e-01
         - -3.9972745942761478e+00
         - 1.4769152358626086e-01
         - 1.8593001353543415e-01
         - -9.8461864285767109e-01
         - -5.2423163361190450e-01
         - 2.1191288739168352e+00
         - 3.4522787670142598e+00
         - -3.5494533449687284e+00
         - 6.8204534806614303e+00
         - 1.3138435497432106e+00
         - 6.8482085787585001e-01
         - -4.2668332888375599e-01
         - -8.4135086780836099e-01
         - -5.2369195057772777e-01
         - -4.6383178344183312e-01
         - 2.3207654471175132e-01
         - -7.1566642052609042e-01
         - -1.6724849429209723e-01
         - 5.0082434054303917e+00
         - 2.8939623914179791e+00
         - -5.7121084813519585e-01
         - -2.1924248325328000e+00
         - 3.2341790761109612e-01
         - -1.7453958345833966e+00
         - 1.1484571114945816e+00
         - 2.7341706499933838e-01
         - 9.9582026502532695e-01
         - -2.0347047704543198e-02
         - 1.0479637648787414e+00
         - 8.5326981768239629e-01
         - 5.8334049067270544e-01
         - -2.3265280526467782e+00
         - -2.3645535319342499e+00
         - 8.9176007631226428e-01
         - 1.8822870218485679e+00
         - -6.0028889940848262e-01
         - 9.0864725509555655e-01
         - 1.4749846703985667e+00
         - -2.1758260284043895e-01
         - 9.6193113561758026e-01
         - 1.2740305141072483e+00
         - 2.1534216758265048e+00
         - -3.7864177631740525e+00
         - 6.6269226971937547e+00
         - -5.2017993839413834e-01
         - 7.7737150251674536e-01
         - 8.9564125104598835e-01
         - -1.4272555771179454e+00
         - 9.6563256224440241e-01
         - 6.4999454761545317e-01
         - -7.4452147790318923e-01
         - -3.2715665262298166e+00
         - 7.4705006622195569e-01
         - -1.4604858548808197e+00
         - 2.0393415684980498e+00
         - -6.8828802673709006e+00
         - 2.1922706775865911e-01
         - 1.5112621899831853e+00
         - 3.8206006838219686e+00
         - 2.8961369701818729e+00
         - 3.7374057747713820e+00
         - -2.8139043890885889e+00
         - 1.2189189910898877e+00
         - 3.0259767345383222e+00
         - 2.6114564413313910e+00
         - 4.9233243164030827e-01
         - -9.3290745114478837e-02
         - 3.6079206768306391e+00
         - 4.1592479000489518e-01
         - 4.7637109299010899e-01
         - 5.6537133303470428e+00
         - -6.2507996409781730e-01
         - 1.9606894201846206e+00
         - 6.7072005976692606e-01
         - 1.5686172464524709e-01
         - -9.3625033005510327e-01
         - -7.3290894246471200e-02
         - 2.8659385455016984e-01
         - -9.9107543632610673e-01
         - -6.2690579118518908e-01
         - -6.9503939307835638e-01
         - -1.8083096192031689e+00
         - -5.2857996277951957e-01
         - -2.5645652648028183e+00
         - 3.9053708913158632e-02
         - 2.8902663151927865e+00
         - -6.1533641562155261e-01
         - -2.2641547819563672e+00
         - -1.1193545358306769e+00
         - -1.3437019452655379e+00
         - -1.5687667288714153e+00
         - -1.6906564665487023e-01
         - -2.2450149795643717e+00
         - -9.4594297945086703e-01
         - -6.1465623624221599e-01
         - -1.9108811799636225e+00
         - -1.2884775430708608e+00
         - 8.6869333895491418e-01
         - -1.2841293451924023e+00
         - -4.1291369096976482e-01
         - -7.4450730197184023e-01
         - 5.5701242279963488e+00
         - 4.5657229213081694e+00
         - -3.6844541955591095e+00
         - 9.7485841351239200e-01
         - 2.8033846278560359e+00
         - 1.8795825283972099e+00
         - -4.9236139556654962e-01
         - 1.2377111953547575e+00
         - -1.6645039800079247e+00
         - -1.1170142959473435e+00
         - 1.7525050205237345e+00
         - 2.2154617744204751e-02
         - 4.0854174778128796e+00
         - 2.8588986427600918e+00
         - 1.3812044208956638e+00
         - -4.4800562111455049e-02
         - 1.0777734064360465e+00
         - -4.9959798052361942e-01
         - -1.5350167284200777e+00
         - 1.0292113119289941e+00
         - 6.5673661309067455e-01
         - -7.0470558026986052e-01
         - 1.6377311003366641e+00
         - 1.8449839573401203e-01
         - -3.8203261368834265e+00
         - -1.6749449771080960e+00
         - 1.4680553555995286e+00
         - 1.5388954780014760e-01
         - -5.6942083937863541e-01
         - 1.3995723712164598e+00
         - -1.5582897283636923e+00
         - -7.6904893705325483e-01
         - -3.1975733385144092e+00
         - 1.2506270140502662e+00
         - -1.8759415719690151e-01
         - 9.4860787196697405e-01
         - 4.6321126224350770e+00
         - -7.3794488065597470e+00
         - 3.6429229070597673e+00
         - -2.1267832897503203e+00
         - 1.3955739260384343e+00
         - 1.5755786601871918e-01
         - -3.1732706478417598e+00
         - 1.2690098687414155e+00
         - 9.1640131069600017e-01
         - -1.8398008727500699e+00
         - -5.2649194805213917e-01
         - -1.8950025623335502e+00
         - -3.7447817302627264e+00
         - 9.0051195785258054e-01
         - -3.1502578639561181e+00
         - 5.0301199441689279e+00
         - 3.4573420729053495e+00
         - 2.5655187079138639e+00
         - 1.2005359031029066e+00
         - 1.3805862196505649e+00
         - -1.3718608801407906e-01
         - 1.5472872534321025e+00
         - 2.2200750826672913e+00
         - 4.3129383912530922e-01
         - -2.1441140134104781e+00
         - 2.1512003896353877e+00
         - 3.6521609145475074e+00
         - -1.8016627675841361e+00
         - -7.1818768423199497e-01
         - -1.9307034292087326e+00
         - -9.5934673302527596e-01
         - -3.5344262798244492e+00
         - -4.7663937751072172e-01
         - 3.6781946951631825e+00
         - -1.0479388180556815e-01
         - 9.8360927461858660e-01
         - -1.8498900604732207e+00
         - -3.1047499265069991e+00
         - 4.0313482660784778e+00
         - 2.3127208282903582e+00
         - 5.4169687045616233e-01
         - 6.2436902333975908e-01
         - 1.4550263643988195e+00
         - -4.8049731791740209e+00
         - -2.2190271233680834e+00
         - 8.0009539170302638e-02
         - 1.3028695505697058e-01
         - -2.3992990068160474e+00
         - -1.5806168008434363e+00
         - -2.5765694643751957e+00
         - -3.8517670168661740e+00
         - -1.9089633219932045e+00
         - -5.7858189317230535e-01
         - -1.7655588229662644e+00
         - -2.3522783929931177e+00
         - 3.5088396999392613e-01
         - 7.0849727852972710e-01
         - -3.2685660355297306e+00
         - -1.7706472856825453e+00
         - -1.9602079727209323e+00
         - -9.0022885098999406e-01
         - 4.6388222664203332e-01
         - -1.6601770057284433e+00
         - -1.5465553553667253e+00
         - 2.6174106995037092e+00
         - 2.8400800600593703e+00
         - -2.0544129625998622e-01
         - 2.0693544423311447e+00
         - -3.5489813590585428e+00
         - -3.4481700401208487e-01
         - 4.8777918857864994e-01
         - 1.3388443783820343e+00
         - 4.1786762978488525e+00
         - 1.6562981210644339e+00
         - 1.9759237683126090e+00
         - -2.1986474879443656e+00
         - 5.7406849994184064e-02
         - -8.6790025771783608e-01
         - -1.5970851787105069e+00
         - 1.4236622290695737e+00
         - 4.2661898215352761e-01
         - 3.1860105910241188e-02
         - -7.9881825040535215e-01
         - -1.8198252059107238e+00
         - -4.9068746372152026e+00
         - -3.3153482081989156e+00
         - 2.7147445993467194e+00
         - -2.2321896690358611e-01
         - -7.2608699018214040e-01
         - -2.2484911070325002e+00
         - 5.3371539250991828e-01
         - -1.4177999229972746e+00
         - -9.6363703317588245e-01
         - 9.9481867279536296e-01
         - 3.8882392077643424e-01
         - 5.4309185336627586e-01
         - -7.4264977720073577e-01
         - -2.4523088069147976e+00
         - -1.7497043184730321e+00
         - 2.4100319802988043e-01
         - 2.8988152556470990e+00
         - 2.1329734462098773e+00
         - -4.1356759607159077e-01
         - 7.3990883619969381e+00
         - 5.8807777858970556e-01
         - -1.6795908089177738e-01
         - -1.1117404090189895e+00
         - -1.2224079727305666e+00
         - 3.8795425381785126e-01
         - -2.2181131060891310e+00
         - -1.4600530955310100e+00
         - -1.5474476163039668e+00
         - 2.9210524221245300e+00
         - -8.3939915227460848e-01
         - 2.1290740772721839e+00
         - -4.3430665250503042e-01
         - 9.3301516918608196e-01
         - 2.8215746758053859e+00
         - -3.1399253551803602e-01
         - -3.4887024228449506e+00
         - 7.0653275423824768e-02
         - -2.9840959258682633e+00
         - 2.6525720151517991e+00
         - 2.2583306983092774e-01
         - -1.2616673773739744e+00
         - -4.9964194432466265e+00
         - 1.6001550618263778e+00
         - -1.2385915631945041e+00
         - -5.9832457516716808e-01
         - 1.4390328245539232e+00
         - -1.3100685485694172e+00
         - 2.8640290848213446e+00
         - -8.3491070159331982e-01
         - -4.0446784794235251e+00
         - 5.8528331038724772e+00
         - -5.8067310514827009e+00
         - 2.2455553012245755e+00
         - 1.2552203298831914e+00
         - 5.8741571267365389e+00
         - -4.8973191908344988e+00
         - 1.6315339382998104e+00
         - 5.1834289687208834e-01
         - 1.5580086566324434e+00
         - -1.5548380930464707e+00
         - 5.0498598897871139e+00
         - -3.2097154371063357e+00
         - 5.2675258312737281e+00
         - -1.5825053333981003e+00
         - 4.2424114194765776e+00
         - 4.6565677849227111e-01
         - -1.4764958105892705e+00
         - 9.3047974820666213e-01
         - 1.5322996815646353e-01
         - 1.1577063393117801e-01
         - -2.7664827495022317e+00
         - -2.6474445084732490e+00
         - -4.9097527996869292e+00
         - 6.6583268682201535e-01
         - 2.0082931955597525e+00
         - -1.2512510046892855e+00
         - -5.2606464797634134e-01
         - 4.7409097059426184e+00
         - -3.9114635790088015e-01
         - 2.5316978866189968e+00
         - -3.4631915378330222e+00
         - 9.6931335367857085e-01
         - 3.5149272790896808e+00
         - 3.2863215380819115e+00
         - -1.9901836199517979e+00
         - 2.5319000030903654e-01
         - -2.3069373200623624e+00
         - -1.2187530443888064e+00
         - 1.3054824499046462e+00
         - 2.8141338905978692e+00
         - 6.2398214689658109e-02
         - 2.9968846619939599e-01
         - 1.6715424325342212e+00
         - -7.4418227564408113e-01
         - -2.4856311752588542e+00
         - 2.9702317059672047e-02
         - -4.4127016623546123e+00
         - 2.6806478914849392e+00
         - -2.4266278291229209e+00
         - -2.2184090552304472e+00
         - 1.0565858399602133e+00
         - 1.7516692466879746e+00
         - 7.7765575157744493e-01
         - 2.8253627560789942e+00
         - 2.0223567642190527e+00
         - 9.6722602697734222e-02
         - 9.0042874862685907e-01
         - 2.0120065721341138e+00
         - -2.1773005455365912e+00
         - -2.9373164176966921e-01
         - -8.8791273724943209e-01
         - -3.1446814218199957e+00
         - 1.0208140416229269e-01
         - -1.5748712172629225e+00
         - -9.6917747006577648e-01
         - 8.3302387644328713e-01
         - 1.3888290052567245e+00
         - -1.2683992749972801e+00
         - -1.1137390476070625e+00
         - -1.9641052481810080e+00
         - -7.4650785870829989e-02
         - -1.7645978317725200e-02
         - -1.8705591877872572e+00
         - 1.9280195261667707e+00
         - 2.4057203439721091e+00
         - 2.9334713916874533e-01
         - -1.3846752712188948e+00
         - 1.4343118508974999e+00
         - 3.7179178486216515e+00
         - -6.1850171266273091e-01
         - -5.6625245064032659e-01
         - 1.5407283541145032e+00
         - -1.1982881337096190e+00
         - -1.1448476422980660e+00
         - 1.0502206764190161e+00
         - 8.9295828927723764e-01
         - 2.0662816024419532e+00
         - 1.8803346804637591e+00
         - 8.5086141197685061e-01
         - 1.7925393637629294e+00
         - -5.5433407801730494e-01
         - 2.0585661939979594e+00
         - 1.3335697845680369e-01
         - 1.2171539781948615e+00
         - 1.9712234086518021e+00
         - -2.5227097662697779e-02
         - 1.2387724594010623e+00
         - -1.4696400673047538e+00
         - -1.7693139137096190e+00
         - -9.9780966766807352e-02
         - -6.3104918077373262e-01
         - -3.4790132059283463e-01
         - -2.2386062610490591e+00
         - 2.3985882277708626e-01
         - 1.0682936347828667e+00
         - -2.3724188547081679e+00
         - 1.4851648743467771e+00
         - 1.1799304691191215e+00
         - 1.9075203103686442e+00
         - -1.1413818824522908e+00
         - 2.5004566923675764e+00
         - 2.7901301687333744e+00
         - -2.0186869748582970e-01
         - 3.4735508781746216e-01
         - 6.4962409678315725e-01
         - -8.9857278515402017e-01
         - 7.1354205930935799e-01
         - -5.8500554401545990e-01
         - -1.4364259755460300e+00
         - 2.2292637382133460e+00
         - 5.2510651584263424e-01
         - -1.8402819566856978e+00
         - -3.2461902793286201e-01
         - 1.9924949144748512e+00
         - 5.6178122634128935e-01
         - 2.5300440405509321e+00
         - -2.5037409937642430e+00
         - 7.2251391407585652e-01
         - 6.9432433966666507e-01
         - 2.3903820569370531e+00
         - 7.9823330323518377e-02
         - 1.6228164058428292e+00
         - -3.6650052593776397e+00
         - -8.9060210508692494e-01
         - -5.8327481632016187e-01
         - 1.7541698076749315e+00
         - -1.7985086001570174e+00
         - -2.0304717724959811e-02
         - 6.2245022891249713e-01
         - 9.0741753787016044e-01
         - -1.1894233602779241e+00
         - 6.1723502475731096e-01
         - -9.6548549034613795e-01
         - 2.8703138171702097e-01
         - -1.1283664111143512e+00
         - 9.2469367782903922e-01
         - 2.3275372158659269e-01
         - -1.2489714232754534e+00
         - -1.4546590765023384e+00
         - -9.7458194386742114e-01
         - 4.7031376582102069e-01
         - 1.8695310000170760e+00
         - -1.4256614644635562e-01
         - -1.3849352593714119e+00
         - -2.6621680507204073e+00
         - 2.1277875300568718e+00
         - 3.1655671843047313e+00
         - 4.5737937401866463e-01
         - 3.0153377041891707e+00
         - 4.9793227856968114e+00
         - 9.1052788116125338e-01
         - 1.4137064684351144e-01
         - 1.5239300705821879e+00
         - -2.5518211101544970e+00
         - -2.5020001427177938e+00
         - -2.8222738714115501e+00
         - 1.1739569113498834e-01
         - 4.2249652538132105e+00
         - -4.4164157301715949e+00
         - 7.6860775338515885e-01
         - -1.1576049487027389e+00
         - 2.5015013420213850e-01
         - -2.0632985298203339e+00
         - 5.0252718941768970e+00
         - -4.7227032694200832e-01
         - 6.1908800483051744e-02
         - 1.2586153261330248e+00
         - 2.1191639845428227e+00
         - 3.3404430088504716e-01
         - 2.6748027092412210e+00
         - -3.8109275376461498e+00
         - 9.7030216850114781e-01
         - 2.9819157406038133e+00
         - 2.5340267282282145e+00
         - 9.3465468746523406e-01
         - 3.3305118025274498e+00
         - -2.3078043950191982e-01
         - -2.1422634187820835e+00
         - 1.9181605722367118e-01
         - -1.8787986163603507e+00
         - 2.4319472591811002e+00
         - 1.0546834052693079e+00
         - 1.2434861923109957e+00
         - -7.2821071518124170e-01
         - 2.1772884986128487e+00
         - -9.4764108596700714e-01
         - -3.2702766157758338e+00
         - -1.7152832021431950e+00
         - 1.0660448472671629e+00
         - -3.8910463351159330e-01
         - 1.0127631634375443e-01
         - -6.3255371866059984e-01
         - -4.4869965130377981e-01
         - 1.0448737520066054e+00
         - 2.0238766185722654e+00
         - -4.7750915912444097e-01
         - 3.6701702148164356e-01
         - 1.4461094716853031e+00
         - -2.7702610201158842e+00
         - 2.4663514065657850e+00
         - 1.2535583655342601e+00
         - -7.9508359679178231e-01
         - 2.5608770533679146e+00
         - 4.1894861982671305e-01
         - -2.2766172848527133e+00
         - -3.3706598266451954e-01
         - 4.5128367876860542e-01
         - -1.2324673620571742e+00
         - -1.0242410013173316e-01
         - -2.7595193563074343e+00
         - 4.8500868734099728e-01
         - 8.4427991465196894e-01
         - 7.5973167564776256e-01
         - 1.4642667434159260e+00
         - -1.3055468411812302e-01
         - -9.2191810466129298e-01
         - 6.8396597729918363e-01
         - 2.4991984671709271e+00
         - 9.3440529483857244e-03
         - -2.1873977434067778e-03
         - 2.8450693372577576e-02
         - -2.8263925071356694e-02
         - 1.0302117137144472e-03
         - 1.9828031857684267e-03
         - -1.2749605566356400e-02
         - -2.7864671190733669e-02
         - 1.1801178644389246e-02
         - -3.4352947262416408e-03
         - 5.0190697774791567e-03
         - 1.2790682549813493e-02
         - 3.6878916653338106e-03
         - -1.6272844223036206e-02
         - -6.0492373986939319e-03
         - -1.7197478428670105e-02
         - 4.8291791709238786e-03
         - -1.2641494618313036e-02
         - 3.8277112599727327e-03
         - 4.3727429856507943e-03
         - -2.2115714779599463e-02
         - -2.1413012039804689e-02
         - 4.4577787032860300e-03
         - 5.4451021610905283e-03
         - 1.3734801979982210e-02
         - 1.7138988984556278e-02
         - 1.5095993057950804e-02
         - -2.1637916961911734e-02
         - 1.6882204323355878e-02
         - -1.9938771952106034e-02
         - -1.4188959888668782e-02
         - -1.0012245095217897e-02
         - -6.8776010648918784e-04
         - 4.1530057003132653e-03
         - 2.7224348601359295e-02
         - 1.7211479238264044e-03
         - 1.7873433507061661e-02
         - -2.1047719758606379e-02
         - -1.3594512988659520e-02
         - 1.5133474399179256e-03
         - -1.8703190155830341e-03
         - -2.1504585691595249e-02
         - 1.4263639381272973e-02
         - -2.3639426484569889e-02
         - -2.4811980047580933e-02
         - -1.9177780351664585e-02
         - -2.4990097612557348e-02
         - -1.3250833280111880e-02
         - -9.1416055802907379e-03
         - 2.7738353578343127e-02
         - 1.2128298316845156e-03
         - 7.8462455226862380e-03
         - 2.5392286427195668e-02
         - -1.3964555148390066e-02
         - -2.0547558572432408e-02
         - -1.1918715688736593e-03
         - 2.5545659949758291e-02
         - 1.4490794255117375e-02
         - -9.8875151334158213e-03
         - -1.6581326255667137e-02
         - -4.0411077880900242e-03
         - 1.6807820810219889e-02
         - 2.2881802193724921e-02
         - -1.4495858212536638e-02
         - -6.0591815876761025e-03
         - 1.3343938889671158e-02
         - 2.0909792392598773e-03
         - 7.7535647631337863e-03
         - 3.6477818264489459e-03
         - -1.9279619941610943e-02
         - 5.7215437087359527e-03
         - 5.9222580816950853e-03
         - 1.2712645597990874e-02
         - -2.3788258098672643e-02
         - 1.6285827484953073e-02
         - -1.0044220770461919e-03
         - 8.0432383121859675e-03
         - 1.8388073809120196e-02
         - -6.7046202736805727e-03
         - 2.8760475541177648e-03
         - 1.2437895848346661e-02
         - 4.6577104573156149e-03
         - -1.4661780537524420e-02
         - -2.2536644362977896e-02
         - 3.3576454005956489e-03
         - 1.9874501090568347e-02
         - -3.7635667697329448e-03
         - -2.1462904861805559e-02
         - -3.6111953412403934e-03
         - -2.6514712823366283e-03
         - -2.1447681821952138e-02
         - 2.0455512682673468e-02
         - 1.0843631657200863e-02
         - 1.0651148438191965e-02
         - -7.9482999628387695e-03
         - 7.3090480472741077e-03
         - -4.0013297021311515e-03
         - -1.0576798506795996e-02
         - 1.3580933147992564e-02
         - 1.5177715594920737e-02
         - -3.8343682039873872e-03
         - -2.8307646980739867e-02
         - 6.7677948410353747e-03
         - 2.4409652078497082e-03
         - 1.4666289663161119e-02
         - -1.2739299552451065e-02
         - -1.1196463469379447e-02
         - 1.7406824923264046e-02
         - -1.0953567952022914e-02
         - -3.0421992320858052e-03
         - 2.6275474704223242e-02
         - -1.7247608761468605e-02
         - -8.3776257318246873e-03
         - -6.2555109297473344e-03
         - -6.0288177549803305e-03
         - 1.0117784258248412e-02
         - -2.5662630340970105e-02
         - 1.3426319739449395e-02
         - -4.6330412607552603e-03
         - -1.0847503959328235e-02
         - 8.8927014892619654e-03
         - -2.7892912059678181e-03
         - 2.0753644011291213e-02
         - 2.7380246391962826e-03
         - 1.9963991299520299e-03
         - 3.5411411813885780e-03
         - -2.3821315437567870e-02
         - 2.1101898688813805e-02
         - 1.0865471069315090e-02
         - 2.1223064545874224e-02
         - -6.6632202355316663e-03
         - 1.1513983168823773e-02
         - 2.3380057003996361e-02
         - -1.1584058532618478e-02
         - -2.3589537589252953e-02
         - -7.7485830861920963e-04
         - -1.1821142174064979e-02
         - -1.3990112478755536e-02
         - 6.7656991708637416e-03
         - 8.2509766709835258e-03
         - 1.2414742617936510e-02
         - -8.8590975995166002e-04
         - 8.1472954280285073e-03
         - -1.1889488544765963e-02
         - -2.3891159787425318e-02
         - -4.8516218471405448e-03
         - 1.4304605239359723e-02
         - -2.2732593170137295e-02
         - 2.7648751934123660e-02
         - -1.3197529290098662e-02
         - -1.5461942980576600e-02
         - 2.0198587237046484e-02
         - 1.1227889409020055e-02
         - 1.7745786075801108e-02
         - 1.3966774197930487e-02
         - -1.9722907439788356e-02
         - 1.0927082729458767e-02
         - 1.8992527738084252e-02
         - 6.6100106146177963e-03
         - 4.8831341746668434e-03
         - 5.2775137254489710e-03
         - -2.6630177803607494e-02
         - -1.1856208590865563e-03
         - -1.9004156117812289e-02
         - -1.0189555876786140e-02
         - 2.0375456854516828e-03
         - -1.7415748635815253e-02
         - 2.4780549335283786e-02
         - -6.2296829477627496e-03
         - 1.5676918707081180e-02
         - -1.0307373142441222e-02
         - 8.8805889220088027e-03
         - -2.0780682160482393e-02
         - -1.9079447400014490e-02
         - -1.9872961811979763e-02
         - 2.4142693430582451e-02
         - 1.7658025294773425e-02
         - -1.2536573602232428e-02
         - 1.7303368994408985e-02
         - -8.5965514441776348e-03
         - -1.8675408683970187e-02
         - -2.2354823995860841e-02
         - -3.4637149032535840e-03
         - -1.5622463041610711e-05
         - -2.4498173274008918e-02
         - -9.1974305532217249e-03
         - 8.0623012078124851e-03
         - 9.5717115107471253e-03
         - 6.9520339927976668e-03
         - 1.3933074524884865e-02
         - 6.4166860348988247e-03
         - -2.7832639620501056e-02
         - -7.1648497332243545e-03
         - 1.1100853965543370e-02
         - 1.7007914356931456e-02
         - -8.9403696532812417e-03
         - 1.1476110550016067e-02
         - -2.0709021126469680e-02
         - -1.9240821940630332e-02
         - -9.7885042776247738e-03
         - -2.3712155537778473e-02
         - -3.0647416848579630e-02
         - -1.3821679199787098e-02
         - -2.3128977533310079e-02
         - -1.5152072153318473e-02
         - 2.3442693332511724e-02
         - -1.3753545530943330e-02
         - 2.2358826605004638e-02
         - -2.0253772236568993e-02
         - 1.3271244295044572e-02
         - 1.4853198341110267e-02
         - -1.3599390459941130e-02
         - 2.4372517748236764e-02
         - -1.5782597786960513e-02
         - 3.7343444779886852e-03
         - -4.1428830278844803e-03
         - -1.6768846438154444e-02
         - 7.0253126642543075e-03
         - -9.5715335276689141e-04
         - 1.5463801121275919e-02
         - -2.4389425004182390e-02
         - 2.5929006429540432e-02
         - -9.9194596163184132e-03
         - -2.2808088281214153e-02
         - 2.2637453702932676e-02
         - -1.7708156040684288e-02
         - 8.1414929691053090e-04
         - 6.1018614026456068e-04
         - -2.0720399454955209e-02
         - 1.5499551448135127e-03
         - -8.6405439628850587e-04
         - 8.6705697981455821e-03
         - 1.9246589338237561e-02
         - 3.8851858570120340e-03
         - -2.2304929763625234e-02
         - 1.7884391350227357e-02
         - -1.8844677012811450e-02
         - -1.8102862524060848e-02
         - 1.8486156081219819e-02
         - 3.3241419884052952e-03
         - 1.5931191852243530e-02
         - 1.1818406048096032e-02
         - 5.7203845224405346e-03
         - 2.0045235832599494e-02
         - -2.3005531548214688e-02
         - 5.9092076038368864e-03
         - 7.8271792761904282e-03
         - 1.3974239285813900e-02
         - -1.8190705194873459e-02
         - -2.7896727281754949e-02
         - -2.0893772031802343e-02
         - 1.7153633659739157e-02
         - -1.2002681792063395e-02
         - -1.4387046147559123e-02
         - -2.5903347620723091e-02
         - 1.4398293761946127e-02
         - 1.7369760282740149e-02
         - 1.5861544627145674e-02
         - 2.7563827832552019e-02
         - 1.8533837385230095e-02
         - -1.1859201534548260e-02
         - 1.1700164265816939e-02
         - -5.2374647808298138e-03
         - -2.0824094291803211e-02
         - 5.1646910548053017e-03
         - 2.2752444852689867e-02
         - -2.0374687415317290e-02
         - -5.9761205699110104e-03
         - -3.4637434559740550e-03
         - -5.4880075728249069e-03
         - -3.7062955467464637e-03
         - -1.4520366646546689e-02
         - 1.2940438212441674e-02
         - 1.2621880359559540e-02
         - 6.5620273902581411e-04
         - 2.5287673317223265e-02
         - 3.5693256005197536e-03
         - 2.7564753785134923e-02
         - 4.7972670104458621e-03
         - -3.8282404534642957e-03
         - 1.3830486508602590e-02
         - -3.6317133361125267e-03
         - -1.3815187454585013e-02
         - 1.4906065846374626e-02
         - 2.4951222676097120e-03
         - -2.4569219089882521e-02
         - 8.6493544072980197e-03
         - 2.3647588895638273e-02
         - 1.4294657746629453e-02
         - 6.3125443968600351e-03
         - -7.7535128092350485e-03
         - 7.1881532907476357e-04
         - 2.0856517765274064e-02
         - -9.2162315122361494e-03
         - 2.4009224873070327e-02
         - 2.2386930243758197e-02
         - 1.5233125652166914e-02
         - -2.1923723670781944e-03
         - -5.2814052407457938e-04
         - 9.5613125132447182e-03
         - 3.7924993506710347e-03
         - -1.0248883391741542e-02
         - 9.5337440098613047e-03
         - 1.8115176572801737e-02
         - -2.1169831753078405e-02
         - -2.8649242107006676e-02
         - -9.1462272685972797e-03
         - -1.4109644418612260e-02
         - 2.5944485841664412e-02
         - -1.9751913765729743e-02
         - -1.3928788258921588e-02
         - -7.1048285169061217e-03
         - -1.4591858018330706e-02
         - -1.7961872017005485e-03
         - -1.6068901638356687e-02
         - -1.8808862031260892e-02
         - 1.8768284504229606e-02
         - 1.2690080535388448e-02
         - -1.7412788530941675e-02
         - -1.0293022270558077e-03
         - -2.3999432862370985e-02
         - -1.0015334986955836e-02
         - 5.9353975135991435e-03
         - -5.1439146887358005e-03
         - -2.4462406004248208e-02
         - 1.9437861976848467e-02
         - 1.7543550868190178e-02
         - 1.7749852074332311e-02
         - -1.9855805268817837e-02
         - -2.5080668707059165e-02
         - -2.4723833153638828e-02
         - 7.7558938270476533e-03
         - 2.2039465856295317e-02
         - 1.8599591083744284e-02
         - -1.1668536414782542e-02
         - -1.0581647158480149e-02
         - -1.0268345340111701e-02
         - 2.4931892784022427e-02
         - 9.7671483190161861e-04
         - -5.1087070226152657e-04
         - 2.5682317981554258e-02
         - -1.2266923428629076e-02
         - -1.8418074454543881e-02
         - 2.6820922889430020e-02
         - 1.9589307068376818e-02
         - -2.1661746635390391e-03
         - 1.6336742918061212e-02
         - -1.9181057710185224e-02
         - 7.9375531877077139e-03
         - 1.9246517172242711e-02
         - 8.2850712849793593e-03
         - 1.3427919576023994e-02
         - -1.9752012474323288e-02
         - 1.1651398651708276e-02
         - 1.3738678929263214e-02
         - 1.9118182408644116e-02
         - 6.3131967610815095e-03
         - -1.4265209022332595e-02
         - 2.3154237491170699e-02
         - 2.5375376817030747e-02
         - 2.6359112456968287e-03
         - 1.0152064616229414e-02
         - 2.1247604715536501e-03
         - -2.1009727712337424e-02
         - 2.1374370745516971e-02
         - -1.9757776573984000e-02
         - -2.3238756270367762e-02
         - 9.1302321427232519e-03
         - -2.4892788652927027e-02
         - 7.1870923361043891e-03
         - -1.0587445070017914e-02
         - -9.3530880141426374e-03
         - 8.6190741986145545e-03
         - -1.2039906601789120e-02
         - 5.3936776967578410e-03
         - 2.5638106724942124e-02
         - 1.2617609202996951e-02
         - -2.5073624765328501e-02
         - -3.9754065350572636e-04
         - -5.6727316221790247e-03
         - 9.0861926300077230e-03
         - 1.8734363815669806e-02
         - -1.1422470282642459e-02
         - 2.6054439636177894e-02
         - -1.0948242453047123e-02
         - 1.6557423166055230e-02
         - -1.9122027641297414e-02
         - -1.6174708026870346e-02
         - -1.5816958454511833e-02
         - 9.1544670334862584e-03
         - 8.2841329931993230e-04
         - 2.6415777045868949e-02
         - 2.0548996971816835e-02
         - 6.6686175611622954e-03
         - 1.7443913257679650e-02
         - 6.2700541318583911e-03
         - 4.8471447210763491e-03
         - -3.6345373975607861e-03
         - -1.3685741640078916e-02
         - -1.5348923360806383e-02
         - 9.4920345617116215e-03
         - -5.2961086684080250e-03
         - -8.3288860598988192e-03
         - 1.7647364615377518e-02
         - 1.2272499986283075e-02
         - 2.5343161634724248e-02
         - -1.1584005243583721e-02
         - 1.6551917589172158e-02
         - -1.5755564606107386e-02
         - 1.9184665401464393e-02
         - 4.8766047604289413e-04
         - -2.0041746939104068e-02
         - -1.5591386197454050e-02
         - -1.3676560961083733e-03
         - -2.0488194334557237e-02
         - -3.2845692391783345e-03
         - 8.5992388645753873e-03
         - 3.4766957713951783e-03
         - 2.2033462293221534e-02
         - -7.8591847663396185e-03
         - 2.2300339268202629e-02
         - 2.6457496545933920e-02
         - 8.8636134036527738e-03
         - -2.4933994548198307e-02
         - -1.2073197512605563e-02
         - 1.2519614651797930e-02
         - -2.8885969015296337e-03
         - -2.6346749309246308e-02
         - 1.3013450829259371e-03
         - -5.0321479396766150e-03
         - 1.0979027478514931e-02
         - 7.7774466285972788e-03
         - 2.0021597391151984e-02
         - -1.4167830744305998e-02
         - 2.5704670700232066e-02
         - 2.9644982737184362e-03
         - -3.6159336174781437e-03
         - 1.2950561264431951e-02
         - -1.8276622000607940e-02
         - -1.1266580894583305e-02
         - 2.0525770162179022e-02
         - -8.5074181428816693e-03
         - 8.5975822178185305e-05
         - -1.3669453579691942e-02
         - -2.5603905762640638e-02
         - -6.7653831480416638e-03
         - 6.2949387927249880e-03
         - -1.6407632446951124e-02
         - 1.0395294118489566e-02
         - -1.9889991244289251e-02
         - 4.8224839261145087e-03
         - 2.4925009790815432e-02
         - -2.0861811555965980e-03
         - 2.8504843205959095e-02
         - -3.2399195408040417e-03
         - -4.8498977901582501e-04
         - -1.5649957677213937e-02
         - 1.2410704422086012e-02
         - 7.1623274117207903e-04
         - 1.3805299902961046e-03
         - -5.7137706952893556e-03
         - -1.3612223530280193e-02
         - 8.5388508723673474e-03
         - 1.9251971650864684e-03
         - 1.2431478742518071e-02
         - 6.7233295669287142e-03
         - -2.1686705538955030e-02
         - 2.6671089378261566e-02
         - 2.2675679026520408e-02
         - 1.9438156715114681e-02
         - 3.7218625741113113e-03
         - 1.5284967927246873e-02
         - -3.3287642631832904e-03
         - -8.0425922545919269e-03
         - -9.8494049836042683e-03
         - 2.4457505080571526e-02
         - 2.4200630620291888e-02
         - -8.7448757085634172e-03
         - -1.7911782054475104e-03
         - -2.6314119935550113e-02
         - 1.0709609803156935e-02
         - 7.5550048669593547e-03
         - -2.2743337357359682e-02
         - -1.7323746471312979e-02
         - 1.5643913801576363e-02
         - -2.1160616594738561e-02
         - 1.9796534764534704e-02
         - 2.5236847589669063e-02
         - -1.0519838867871167e-02
         - 1.1068052745022315e-02
         - 8.4448548458915620e-04
         - -2.1253459129064244e-02
         - -2.2070216031107988e-02
         - 2.4252422689370122e-03
         - 2.4591817353141469e-02
         - -2.2108857010617159e-02
         - -8.6398407670826259e-03
         - -1.3642466612738699e-02
         - -9.1491802234480897e-03
         - 9.7660863981270159e-03
         - 2.5439065747397353e-02
         - -2.4780759620974795e-03
         - -2.2797319784841962e-02
         - 2.1670896442297055e-02
         - -1.8004839719435856e-02
         - -8.5978964282195456e-03
         - 8.6231239918685490e-03
         - 1.3543272062823238e-02
         - 4.0211114343792981e-03
         - 2.2699321198054900e-02
         - -1.4825977283428065e-02
         - 1.6331313093977298e-02
         - -2.1942292446866199e-02
         - -1.4025568943871251e-02
         - 1.8079115669778233e-02
         - -1.5330910280122652e-02
         - 2.2683051051538828e-02
         - 1.9095694397519585e-04
         - 9.4943712929530279e-03
         - 8.3432189982028688e-03
         - 1.0738641607162772e-02
         - 1.5621727634948460e-02
         - 5.4923088385095114e-03
         - 1.7922229077203856e-02
         - -6.6917143154630425e-03
         - 8.7101129169120245e-03
         - -1.6743987464220188e-02
         - -7.5703431087349171e-03
         - -1.7112335069625520e-02
         - 9.4117760984391997e-03
         - -2.2385338564206967e-02
         - 4.2649295996207192e-03
         - -1.4506611141810493e-02
         - 1.2355200113373739e-02
         - 1.9738819841305374e-02
         - -1.9759536444106669e-02
         - 2.0966944482206793e-02
         - -1.7028243676193822e-02
         - 6.3048522635751865e-03
         - 5.4955353472051919e-03
         - -1.1173397468250430e-02
         - -9.7564726374670795e-03
         - 1.9867682225393393e-02
         - -9.8817917235077633e-03
         - 1.1962270363261142e-02
         - 5.2870880060276650e-04
         - 1.5957969030821917e-02
         - 1.1822197636186259e-02
         - -2.6370858918486118e-02
         - -4.5567277313864514e-03
         - 1.7866165402246430e-02
         - -2.5072771136807739e-02
         - -1.7393356046166680e-02
         - 1.9159567793218413e-02
         - -2.7845995606245819e-02
         - -3.1934934214917568e-03
         - -1.4169780573732069e-02
         - 2.5094323245556181e-02
         - 1.3267360543380579e-02
         - -2.0594493569686838e-02
         - 1.7577426972868897e-02
         - 1.5497685888436385e-03
         - -1.9160860123264959e-02
         - 3.4585986577503089e-03
         - -1.7783126413111208e-02
         - -1.2456174584532558e-02
         - 1.3075735874226703e-02
         - -2.1272349858181092e-02
         - 1.4338731863615672e-02
         - 2.3043020390452456e-02
         - 2.6233475508496515e-02
         - 7.5632787113421246e-03
         - -9.1140280920578021e-03
         - -2.0389698387776684e-02
         - -1.9930593043197643e-02
         - 1.4522927012445943e-02
         - 1.7344771077398897e+00
         - -9.1360272695921341e-01
         - 6.3165653355159259e+00
         - -4.1513366793745465e-01
         - 2.3236466565825051e-02
         - 4.0509904300144521e+00
         - -3.2529455301334544e+00
         - -2.1361408316780248e+00
         - -1.2766048538483208e+01
         - -5.8264965164743066e-01
         - 2.6751623195249019e+00
         - 6.1830852694568428e+00
         - 9.9975456732133428e-01
         - 2.1730230283871443e+00
         - 4.9349752468295929e+00
         - 5.4510919897243291e+00
         - -6.8251762918424790e+00
         - -3.9116553897233612e+00
         - -8.8601763369550177e+00
         - -5.5708280129681087e-01
         - 3.1035649471375941e+00
         - 2.3423598597792812e+00
         - 1.3174773788898557e+00
         - 3.4753388092504194e+00
      -
         - -7.3033164473754131e-01
         - -1.4249382304362125e-02
         - -1.7928943833676805e-01
         - -3.4642294285491765e-01
         - 1.4858302386153877e-01
         - 5.3840917667752919e-01
         - -1.1268877696438672e-02
         - -1.5444707396401744e-01
         - 3.3441462460321658e-01
         - 4.1661103272489108e-01
         - 2.2074503886395597e-01
         - 4.3046631703095774e-03
         - -3.2096879156644192e-01
         - 2.7940248277625956e-01
         - -8.9265398778606217e-02
         - 3.2602675015751086e-02
         - 4.3420853469288510e-03
         - -1.1297801794355386e-01
         - 1.9183918181839296e-01
         - -2.1068666383634416e-01
         - 1.1077646236070496e-01
         - 3.5932384938521210e-02
         - -9.5393639911507733e-02
         - 3.1253581294833482e-01
         - 4.2784177861300182e-01
         - -4.4195845833826036e-01
         - -1.5593847700287098e-02
         - 9.9622554784960394e-03
         - -4.0394603797810041e-01
         - 5.9825878222511952e-02
         - -5.1327578504748707e-02
         - -2.0121962703008180e-02
         - 1.0072406878838568e-01
         - -1.3841415855271719e-01
         - -5.6433685678991360e-02
         - 9.9084778043521796e-02
         - 1.6897447541194838e-02
         - 1.5699407171809555e-02
         - -4.7969506738324834e-02
         - 8.0237599680069924e-02
         - -1.9363655104636388e-01
         - -1.0509577790942283e-02
         - 3.2975759073805888e-01
         - -2.8572983598573121e-01
         - 8.1908822111486215e-02
         - -4.2353697846836617e-02
         - -1.2028477835975887e-02
         - 1.1586354730460932e-01
         - -1.8892095328277886e-01
         - 2.0041285651512747e-01
         - 1.7658793724614724e-01
         - -2.2890044983826692e-02
         - 2.0010190600402489e-01
         - -6.7057555647110034e-01
         - 2.5763177396613723e-01
         - 5.2749153261362025e-01
         - -1.6025539159528823e-02
         - -9.1880992028925496e-02
         - 1.9901559207612038e-01
         - -5.5127590505866653e-01
         - 7.7064773468090491e-03
         - -7.6864312859830338e-03
         - -3.2173348540716490e-02
         - 1.4216435162607680e-02
         - 2.6590155314750751e-02
         - -1.4177559315821297e-03
         - -6.9791965110666942e-03
         - -1.2649477480873924e-03
         - 1.8999456307398275e-02
         - -1.4630012440053077e-02
         - 4.3542217261770572e-01
         - -9.1572651500149334e-04
         - -3.6509841804180987e-02
         - 1.4744628641351820e-01
         - -4.3126439374783013e-03
         - 7.2831194396677054e-02
         - 3.1495332367858890e-02
         - -2.4343768046292755e-01
         - -3.0151126274323609e-01
         - -9.8632539360032689e-02
         - -3.6734135877931770e-02
         - 1.1191464995361229e+00
         - -2.6492249615623031e-01
         - -8.7188141399333974e-01
         - 1.7685013900927468e-01
         - -2.2459216096516857e-01
         - -6.0834219879889677e-02
         - 7.7461432241844833e-02
         - -7.9611878238108752e-02
         - 1.6868903157681220e-01
         - -4.1740997273988317e-01
         - -1.5355100576403394e-02
         - 8.1044024633158008e-03
         - -1.2054702528314075e-01
         - -7.5460586908841394e-03
         - -9.3314328500905971e-02
         - -1.3677360735314899e-02
         - 2.6607537828631994e-01
         - 2.5395002656506965e-01
         - 1.4031528455930703e-01
         - 3.0337765353209589e-01
         - -2.4532163378480056e-02
         - -4.3939433997094340e-01
         - -7.3869775728749726e-02
         - -3.8600821376761435e-02
         - 4.1622727551996302e-01
         - 6.3636886724902780e-04
         - -7.6647431653821541e-02
         - -1.6726847836806402e-01
         - 9.7949082309655836e-02
         - -3.8831799570317987e-01
         - 1.2403996783046285e-03
         - -2.4933328542608210e-01
         - -5.0802158796103329e-02
         - -2.2717117811143614e-01
         - 5.3258677029976935e-02
         - 1.0446265441008831e+00
         - 2.2969419570975075e-01
         - -5.2908965140106268e-01
         - 1.1795122869890863e-01
         - -3.6929140849830450e-01
         - -3.1797402161718738e-02
         - -4.3230494538631425e-01
         - -1.7028040986504275e-01
         - 3.2361850921565655e-01
         - 5.9061064243032857e-01
         - -3.5036802804370652e-02
         - 1.7254713225542601e-01
         - -3.3890599824745210e-02
         - -1.8488712409893863e-02
         - 1.3869689399077467e-01
         - -5.0729960285621420e-03
         - -1.6201091731400602e-01
         - -6.8723367175452010e-01
         - 1.3687266149742455e-01
         - -3.4297474706264058e-01
         - -3.2384529678266182e-02
         - 5.1665914653873890e-01
         - 1.0997793944457801e-01
         - 3.2666746949010766e-01
         - -1.0834130593452368e-01
         - -2.7081981216040142e-02
         - 1.0969245079804732e-01
         - 1.2182576939126853e-01
         - -6.8858214542817486e-02
         - -2.0425262144451162e-01
         - 3.5568529277015717e-02
         - -5.0992146354982448e-01
         - 3.7696024939985107e-01
         - 2.7226714811950892e-01
         - 7.0240777759071604e-01
         - -1.0839387980043292e-02
         - -3.4698153489361327e-01
         - -6.9733062496410858e-01
         - 3.6385234187874044e-01
         - -1.6244552135368212e-01
         - -4.8159970874561302e-02
         - 2.3474335622571782e-01
         - -3.5877290130003830e-01
         - 3.2556607129614445e-01
         - 1.1333866383325393e-01
         - 1.4867597799569201e-02
         - -2.3525688883403764e-01
         - 2.4995131767208453e-01
         - 2.0575344208903659e-01
         - -1.1539441202598234e-01
         - 6.9768097280972635e-03
         - 2.1417151886766643e-03
         - -3.1715142067962881e-01
         - 7.3698358147755230e-02
         - -1.0386972694105154e-01
         - -9.2916828488349597e-03
         - -5.1241550395622126e-01
         - 1.6121951147670444e-01
         - -3.5969984062165805e-01
         - 2.7171149658833627e-01
         - 3.1685877763992072e-02
         - 1.1634475195249576e-01
         - 4.4329858779269216e-01
         - -4.5907429807585894e-02
         - -1.6522452193500964e-01
         - 1.9787292881082160e-02
         - 2.9108580099796300e-01
         - -6.2334965666631359e-01
         - 1.6809677663436084e-01
         - 3.2623221548004921e-01
         - -2.6725958641919987e-02
         - 6.1065548141791104e-01
         - -8.4427859511924974e-01
         - 2.4474719347707871e-01
         - 1.7917593351203076e-02
         - 5.7238008232819784e-03
         - 1.0134507134158345e-02
         - 1.8671885456034969e-03
         - -4.3274717103447977e-02
         - -1.3401476303574284e-03
         - 1.9665408891152095e-02
         - 5.0619009559957455e-03
         - -2.3262248643447975e-02
         - 9.4663910035603718e-03
         - -2.4920814111164636e-02
         - 1.9759999529884279e-02
         - -1.8366315097183530e-01
         - 7.6208294711946775e-02
         - -4.5467213423281271e-02
         - 6.2538549691792497e-02
         - -1.8746853433548497e-02
         - 5.1171992887977547e-01
         - -6.3833756761813201e-02
         - -3.2840423705562422e-01
         - 3.2414171052393409e-01
         - -2.7944470229654653e-03
         - -6.1959519742473067e-02
         - 1.5100911924654767e-01
         - 1.9507826756278334e-02
         - 4.7928019874263782e-02
         - 1.9501480853525203e-02
         - -1.8606840911954875e-01
         - -2.4973646799522564e-01
         - -6.0265894063837325e-02
         - 1.7628389796445695e-02
         - -5.0566223427475770e-03
         - 3.7797495932321945e-01
         - -4.2526050018305445e-01
         - 1.3974632178969287e-01
         - 2.1079297275346015e-01
         - 2.3737050385038566e-03
         - -4.8621959603233331e-02
         - -6.7355042115910801e-01
         - 4.0468718296734635e-01
         - -1.2255549396351846e-01
         - 2.0673294073387735e-03
         - 5.3877764121961080e-01
         - 2.6342125245345327e-01
         - -7.0448987526500377e-03
         - 5.4271351245591515e-01
         - -1.0698604650510799e+00
         - -5.6342904020801665e-01
         - 3.4609724402226844e-01
         - 6.5380101859076029e-02
         - -1.9390590400548335e+00
         - 6.1634582470970749e-02
         - -1.7723288498409999e+00
         - -2.4949385441364913e+00
         - -1.2505968560562897e+00
         - -1.5263016357236892e+00
         - -1.9218969022649870e+00
         - -8.4434467109279454e-01
         - -1.9465297312759822e+00
         - -1.3494450856454374e+00
