%YAML:1.0
---
opencv_ml_ann_mlp:
   format: 3
   layer_sizes: [ 72, 24, 11 ]
   activation_function: SIGMOID_SYM
   f_param1: 6.6666666666666663e-01
   f_param2: 1.7159000000000000e+00
   min_val: -9.4999999999999996e-01
   max_val: 9.4999999999999996e-01
   min_val1: -9.7999999999999998e-01
   max_val1: 9.7999999999999998e-01
   training_params:
      train_method: BACKPROP
      dw_scale: 1.0000000000000001e-01
      moment_scale: 1.0000000000000001e-01
      term_criteria:
         iterations: 5000
   input_scale:
      - 1.
      - 0.
      - 3.5445780598270780e+01
      - -3.9649939690121352e+00
      - 3.3538041527683149e+01
      - -5.4590534857925803e+00
      - 3.9591347176837978e+01
      - -5.3459693773893013e+00
      - 1.
      - 0.
      - 2.5309986909180264e+01
      - -3.7652515672601274e+00
      - 2.3999362579518440e+01
      - -4.1559002995014778e+00
      - 2.6187036042433011e+01
      - -4.4551810855089737e+00
      - 1.
      - 0.
      - 2.6129551161494678e+01
      - -3.8233058325548246e+00
      - 2.4262666666162577e+01
      - -4.1714432960588947e+00
      - 2.5291862097238120e+01
      - -4.2688371126537268e+00
      - 1.
      - 0.
      - 3.2690390599947925e+01
      - -3.5798514835246649e+00
      - 2.5621887396286205e+01
      - -4.2232479739139430e+00
      - 3.2000282777364504e+01
      - -4.2767027088198555e+00
      - 1.8667098563199761e-02
      - -1.5470951887387903e+00
      - 1.7784116569831435e-02
      - -2.3009736713195901e+00
      - 2.3764035310030615e-02
      - -3.8264417582842025e+00
      - 2.3183268863599393e-02
      - -1.9177621517948755e+00
      - 2.5196354898090700e-02
      - -1.8593535568160131e+00
      - 2.0000245108638046e-02
      - -2.7747976422904270e+00
      - 2.0383494841727579e-02
      - -2.8355664978825796e+00
      - 2.2565565911797900e-02
      - -1.9997604511035301e+00
      - 2.6478115028768973e-02
      - -1.8701733354956149e+00
      - 1.7452716002022008e-02
      - -2.4611820106051439e+00
      - 1.7918750584026276e-02
      - -2.2855529267658095e+00
      - 2.1069848132632990e-02
      - -1.7902092237928586e+00
      - 2.7248516046789753e-02
      - -1.9659061186412075e+00
      - 1.6852928026432339e-02
      - -2.3850263743007045e+00
      - 1.9906813615153843e-02
      - -3.2280527016267744e+00
      - 2.1726415382405079e-02
      - -1.7908491661115167e+00
      - 2.4084566317427645e-02
      - -1.7422775274027160e+00
      - 1.7477181578639801e-02
      - -2.2114036734921836e+00
      - 2.0241398732218991e-02
      - -3.0174405128266089e+00
      - 1.9595101028714174e-02
      - -1.8986940347695715e+00
      - 2.2777917444466118e-02
      - -1.7678977088533994e+00
      - 1.5838222466798710e-02
      - -1.8947985456234333e+00
      - 1.5837823033828188e-02
      - -2.0339220300460954e+00
      - 1.8038514007001138e-02
      - -1.9234959445138231e+00
      - 2.5570677437713588e-02
      - -1.9644789171875454e+00
      - 1.8644032179633559e-02
      - -2.3964360998894443e+00
      - 2.0894203999684356e-02
      - -2.8077251440157660e+00
      - 2.0501936443526134e-02
      - -2.0579843802011535e+00
      - 2.6447362143695752e-02
      - -1.7623079549169194e+00
      - 1.7999490568073838e-02
      - -2.3505698364580061e+00
      - 1.8524627787187570e-02
      - -2.6606754485030351e+00
      - 2.1355658522020905e-02
      - -1.7303131103942140e+00
      - 1.
      - -1.1210387714598537e-44
      - 1.
      - -1.1210387714598537e-44
      - 1.
      - -1.1210387714598537e-44
      - 1.
      - -1.1210387714598537e-44
      - 1.
      - -1.1210387714598537e-44
      - 1.
      - -1.1210387714598537e-44
      - 1.
      - -1.1210387714598537e-44
      - 1.
      - -1.1210387714598537e-44
      - 1.
      - -1.1210387714598537e-44
      - 1.
      - -1.1210387714598537e-44
      - 1.
      - -1.1210387714598537e-44
      - 1.
      - -1.1210387714598537e-44
      - 1.
      - -1.1210387714598537e-44
      - 1.
      - -1.1210387714598537e-44
      - 1.
      - -1.1210387714598537e-44
      - 1.
      - -1.1210387714598537e-44
      - 1.
      - -2.2420775429197073e-44
      - 1.
      - -2.2420775429197073e-44
      - 1.
      - -2.2420775429197073e-44
      - 1.
      - -2.2420775429197073e-44
      - 1.
      - -2.2420775429197073e-44
      - 1.
      - -2.2420775429197073e-44
      - 1.
      - -2.2420775429197073e-44
      - 1.
      - -2.2420775429197073e-44
   output_scale:
      - 5.2631578947368418e-01
      - 4.9999999999999994e-01
      - 5.2631578947368418e-01
      - 4.9999999999999994e-01
      - 5.2631578947368418e-01
      - 4.9999999999999994e-01
      - 5.2631578947368418e-01
      - 4.9999999999999994e-01
      - 5.2631578947368418e-01
      - 4.9999999999999994e-01
      - 5.2631578947368418e-01
      - 4.9999999999999994e-01
      - 5.2631578947368418e-01
      - 4.9999999999999994e-01
      - 5.2631578947368418e-01
      - 4.9999999999999994e-01
      - 5.2631578947368418e-01
      - 4.9999999999999994e-01
      - 5.2631578947368418e-01
      - 4.9999999999999994e-01
      - 5.2631578947368418e-01
      - 4.9999999999999994e-01
   inv_output_scale:
      - 1.8999999999999999e+00
      - -9.4999999999999996e-01
      - 1.8999999999999999e+00
      - -9.4999999999999996e-01
      - 1.8999999999999999e+00
      - -9.4999999999999996e-01
      - 1.8999999999999999e+00
      - -9.4999999999999996e-01
      - 1.8999999999999999e+00
      - -9.4999999999999996e-01
      - 1.8999999999999999e+00
      - -9.4999999999999996e-01
      - 1.8999999999999999e+00
      - -9.4999999999999996e-01
      - 1.8999999999999999e+00
      - -9.4999999999999996e-01
      - 1.8999999999999999e+00
      - -9.4999999999999996e-01
      - 1.8999999999999999e+00
      - -9.4999999999999996e-01
      - 1.8999999999999999e+00
      - -9.4999999999999996e-01
   weights:
      -
         - -2.2738061913855821e-02
         - -1.4421773000516057e-02
         - -5.3365731113608839e-03
         - 1.8782377050582250e-02
         - 6.3346032358510161e-03
         - -2.7744191588407078e-02
         - 5.3179131065701594e-03
         - 1.0939247103050402e-02
         - 6.3089998041414947e-03
         - 1.9078145617109936e-03
         - 3.0558476416668923e-02
         - -2.3433771676389442e-03
         - 2.5556652061213395e-02
         - 1.2060478786534867e-04
         - -1.1395952424012083e-02
         - 1.8806690121459694e-02
         - -7.2893479970020277e-03
         - 1.2662389149049073e-02
         - -2.0695694775703245e-02
         - -1.7482313546332881e-03
         - -2.0993728995444459e-02
         - -1.6615452219301136e-02
         - -1.4566390737380100e-02
         - 4.1216830368992477e-03
         - -9.0490719281767418e-01
         - -1.5112291439331518e-01
         - -1.7748433712291914e-01
         - -3.0801724646850093e-01
         - 8.9742285507498493e-02
         - 3.6346239758097798e-01
         - -5.9141055963192052e-02
         - 2.5530013275807328e-01
         - 1.1568180584329850e+00
         - -1.3500100050543398e-01
         - -5.4803632185328655e-01
         - -2.4688869487951257e-01
         - -4.8496356971127746e-01
         - 1.5829768785888574e+00
         - 2.1038365875684309e-01
         - -1.2106403983039620e+00
         - -2.9260983730042905e-01
         - -1.3027728513241006e+00
         - -1.9140128958293520e-01
         - 7.1299331832750945e-02
         - -1.3045229819423516e+00
         - -6.1014718677602620e-01
         - 9.0348299115083663e-01
         - -2.1768556365883804e-01
         - 5.3580533577479195e-01
         - 5.6795472276626224e-01
         - 5.5747584122781002e-01
         - -1.4319085276982299e-01
         - 5.0167690426489227e-02
         - 5.0525188224447994e-02
         - -1.8110445158646901e-01
         - 3.9733994120683735e-01
         - 8.9047076725692109e-01
         - -5.4504542987987514e-01
         - -2.8108685723754889e-01
         - 8.8814380374395055e-02
         - 7.4510530299748789e-01
         - -7.4734901011959509e-02
         - -4.6195402818671766e-01
         - -9.8108003803756638e-01
         - -5.7243866110814168e-01
         - 1.3232593489595015e-01
         - 2.1529495171891633e-01
         - -5.3789758515997410e-01
         - -1.0512838332344969e+00
         - 3.2721497645860853e-01
         - -1.2940020955831888e+00
         - 2.5398627987620609e-01
         - -2.5374014699660202e-01
         - 4.1648000868611118e-01
         - -2.4613499684189247e-01
         - 2.2505009742791982e-01
         - 1.3956801791914655e-01
         - 3.0288626447665695e-01
         - 8.4277319560369512e-01
         - -1.4869002696066625e-02
         - -5.4005695065764869e-01
         - 1.1231842737156852e+00
         - -1.3902556559060641e-01
         - 5.1692211385699210e-02
         - -7.3389467744378628e-02
         - 8.6376478986452787e-01
         - 3.3062198655215003e-01
         - 3.5962941236757190e-01
         - -1.1556619682550895e-01
         - -1.6826164274614672e-01
         - -7.8413517337340144e-01
         - -4.1198342576451635e-01
         - -5.4337191687401054e-01
         - -3.5474904002530955e-01
         - 4.8829833636565051e-01
         - 3.3915335183011219e-01
         - -2.0820843655496628e-02
         - -1.2222049321688825e-02
         - 2.1519448208273926e-02
         - 1.6840342266743646e-02
         - -7.0009963513963155e-03
         - -2.0643122304342724e-02
         - 7.2858512034348665e-03
         - 1.9787367539189030e-02
         - 2.4732091333244145e-02
         - 1.2496485487351962e-02
         - 1.3517621535217517e-02
         - -1.2789039884794564e-02
         - 1.7068908086152541e-02
         - 1.5853844614296769e-02
         - 9.2605002776183429e-03
         - 1.2814059172188643e-02
         - 2.4824760051060900e-03
         - 1.4072203363749569e-02
         - 1.7338355149577770e-02
         - -2.2638946674818930e-02
         - 2.2576878439247421e-02
         - -1.4474849094550364e-03
         - -5.5482722730056640e-03
         - -9.5261259099977923e-03
         - 6.0735190586040022e-01
         - 9.1748773342779505e-02
         - 4.5106751498867997e-01
         - -1.1848097458872946e+00
         - -1.1789552069902769e+00
         - 3.0218724052417567e-01
         - 1.0836313355434549e-01
         - 4.8237640226648787e-01
         - -2.9406183403427799e-01
         - 7.8876715938793385e-01
         - -5.3471060774954511e-02
         - -4.7526247174232644e-01
         - 5.9370499337290529e-02
         - 1.1066588906115989e-01
         - 9.5206333007348695e-02
         - 1.5687963713688882e-02
         - -7.2050490047670868e-01
         - -3.3321746251314049e-01
         - 1.4314275843601321e-01
         - 6.2200126130418252e-03
         - 3.1230018078022803e-01
         - -6.8485453382624029e-01
         - 2.7156214076149465e-01
         - 9.4453985214363201e-01
         - 6.5671896825734155e-01
         - -4.6381051592955708e-01
         - -1.7672664557373383e-01
         - 2.1922194278913512e-01
         - 2.1275991980295506e-01
         - -8.9064573391834240e-02
         - -5.5213894498781731e-02
         - 2.8456078030903793e-02
         - -4.9550340127150053e-02
         - -8.0195542202776993e-01
         - 4.3042218517687059e-01
         - 3.5059660409764637e-01
         - 5.4060570724003687e-01
         - -6.3459791358204387e-01
         - 1.5371161199965683e-01
         - 5.1234905158628141e-01
         - 3.7257129920640936e-01
         - -1.3479090294047943e-01
         - -1.3825871148361599e+00
         - 4.7259302632463185e-01
         - -5.2931316001206719e-01
         - 1.3002035111104673e+00
         - -8.5143638379700370e-01
         - -2.0410092892621454e-01
         - -3.4021191520610727e-01
         - 1.1569686644221805e-01
         - 1.4270197234278736e-01
         - 3.4262083111038205e-01
         - -4.3431542753143836e-02
         - 1.7994097724487249e-01
         - -3.0205581202962784e-02
         - -3.5294137355600508e-01
         - 1.2436968149860866e-01
         - -5.1830393406051478e-01
         - 8.3181517757608470e-01
         - 2.0072730812464745e-01
         - -4.0288938319229634e-01
         - -3.1830090183743798e-01
         - 1.8048482539987457e-01
         - 2.9391713105973039e-01
         - -2.7717067009195095e-01
         - 3.9286917554438777e-01
         - 3.0447724409680882e-01
         - -2.7710800264867913e-01
         - -6.9265800396935495e-01
         - -5.0633181742398170e-01
         - 3.1616044226465884e-01
         - 2.8106075185647422e-01
         - -1.4259386815515829e-02
         - -2.0528237851726448e-02
         - 2.2527444258263842e-02
         - -2.9273368838185720e-02
         - -6.1034689239818753e-03
         - 2.2299327807531789e-02
         - 2.0813408857055057e-02
         - -8.3195557614191614e-03
         - 4.4490037630706180e-03
         - -1.4615163281682615e-02
         - -1.5204118332639171e-02
         - 6.1432765010237542e-03
         - 2.4261642133910320e-02
         - -1.2424515222286383e-02
         - -2.1783319283092798e-02
         - 6.7151966233687738e-03
         - 2.5149461776068895e-02
         - 8.3493826392184588e-04
         - -1.2822839655594350e-02
         - 2.3418137560890475e-02
         - -4.4668134360188278e-03
         - -1.1178048844283445e-02
         - 1.0742983121323059e-02
         - 6.7749498385142526e-03
         - 4.5813394222565990e-01
         - -1.8229940143776471e-01
         - 2.9791212132406231e-01
         - -2.6789179573921551e-01
         - -3.1937947157985855e-02
         - 3.6827312028936376e-01
         - 5.2544292183461161e-01
         - 3.3070521707909695e-01
         - 1.8879039944044251e-01
         - 1.8866665898497290e-01
         - -7.8016182452839478e-02
         - -1.2138761814114796e-01
         - 3.6694725385160348e-01
         - -1.6997285346251301e-01
         - 3.5827044584343060e-01
         - -8.7886862825958083e-03
         - -3.0157393111655606e-01
         - -1.7286439864900918e-01
         - 5.3037539519841714e-01
         - -2.7859155783858019e-01
         - -3.4741281118678552e-02
         - 2.1538891942310351e-01
         - 8.0823331517616637e-01
         - 4.1012761541245424e-01
         - -3.8707674654712515e-01
         - -4.1907880568804130e-02
         - 2.8365705599554419e-01
         - 6.0364234843260645e-01
         - 5.6401838436654739e-01
         - -1.7787133376924361e-01
         - 1.0822785729914586e-01
         - -7.6424418802259497e-01
         - -5.9750326386045605e-01
         - 5.7386314184311282e-01
         - 8.1533947219582792e-01
         - -6.1380078352120904e-01
         - -6.5479066565106925e-01
         - 3.2441769864191693e-02
         - 3.0134527592197341e-01
         - -5.5921935565393588e-01
         - 4.1886375154677746e-01
         - 1.3876367577508320e-01
         - 9.2553948417163870e-02
         - 4.6651028139072631e-01
         - -6.0926121207469852e-01
         - 6.9240977069208409e-01
         - 3.9320883581469107e-01
         - -8.6884488988988684e-01
         - -4.2509973709397603e-01
         - -5.0999665226242397e-01
         - 5.8555008815110265e-01
         - -5.9572614990621786e-01
         - -5.2946508097793066e-01
         - 3.0668175124272812e-01
         - -8.1655374939466008e-01
         - 1.5484456492254561e+00
         - -6.4806382314521141e-02
         - -7.1000021998540652e-01
         - -3.0771108212305714e-01
         - 6.1246166054828317e-03
         - -1.5953414143714567e-01
         - 1.3035992039501063e+00
         - -2.6361657612560147e-01
         - -3.4957383362619332e-01
         - -3.1525293863413328e-01
         - -6.3507885644624473e-01
         - 1.3851755229194654e-01
         - 3.0328764523525360e-02
         - -3.0724881534811554e-01
         - 4.1452286809588824e-02
         - 1.1629300743994304e+00
         - -2.0237285129750759e-01
         - -1.6594669087758609e-02
         - -1.3762192440410026e-02
         - 1.8067306176595386e-02
         - 1.9151404232736830e-02
         - -1.7860883543407268e-02
         - 1.0768450571342432e-03
         - 1.9988555943398351e-02
         - -7.9088497512505508e-04
         - 1.5787112968525901e-02
         - -2.7286328462359559e-02
         - -4.5663597865047796e-03
         - -1.5201619787191600e-02
         - -1.7442806054938434e-02
         - 2.3194475195498741e-02
         - 2.4013850241030980e-02
         - -8.1317296811860441e-03
         - -1.6360508170193005e-03
         - -2.6929387707895859e-02
         - 1.9415657883422744e-02
         - -1.8312518898909086e-02
         - -2.1662260086404081e-02
         - 1.1200082889568121e-02
         - -2.0207726574146156e-02
         - -3.2647442674518441e-03
         - -2.4693496538680405e-02
         - -3.6656543245461004e-01
         - -3.9023505375378582e-02
         - -2.0887629338044106e-01
         - -4.1522397690896123e-01
         - -2.9638403051387352e-01
         - -3.8249801587777060e-01
         - -3.6916331656507728e-01
         - 4.2669996932787269e-01
         - -8.8932739022561824e-01
         - 2.0587276777709074e-01
         - 1.0978777111868417e-01
         - 4.4945661058618147e-01
         - -3.5597411398769202e-01
         - -2.7922383127936579e-01
         - 2.5416694222319380e-01
         - 1.6726161863782402e-01
         - -4.4526102051924560e-02
         - -4.9965033337748110e-01
         - -1.6340977473864032e-01
         - -3.1844499890238381e-01
         - 2.8439164209909110e-02
         - 8.1944263870824341e-01
         - -5.8638672898960442e-01
         - 3.4645786628983100e-01
         - -3.2900357134271119e-01
         - -5.1070886280009642e-01
         - -1.1012951329976024e+00
         - -6.6991182151424722e-01
         - 5.7908932760427501e-01
         - -2.7693458163967760e-01
         - 5.6452523101714236e-01
         - -1.0264489337625905e-01
         - 4.8241701136295578e-01
         - -4.9773076639266167e-01
         - -2.9143970610980724e-01
         - -6.1492314343805768e-02
         - 4.2709518072561452e-02
         - 3.9771981142146827e-02
         - -7.2606406387001632e-01
         - -1.9531860398159628e-01
         - -8.7591150968480647e-01
         - 2.1233634085469455e+00
         - 2.2806092614853668e-01
         - -5.9394117293670383e-02
         - -1.2597934883952391e+00
         - 7.7321847591030690e-01
         - 4.0619257808534109e-01
         - 1.0190104859268199e-01
         - -8.1693912950855763e-02
         - -4.0984406189348652e-03
         - -1.4858085764897858e-01
         - -5.1246864387005109e-01
         - -8.3014191148791813e-02
         - -1.0949875705166887e+00
         - 2.5294077739912607e-01
         - 6.6070026055996245e-01
         - -1.2144528693080219e+00
         - 1.9193940812268093e-01
         - -1.3378431115143763e-01
         - -5.6861219546068917e-02
         - 4.6393527803574375e-01
         - -1.9151015496231519e-01
         - 1.9725204386402589e-01
         - -2.4140418646164341e-01
         - -1.9245738539001822e-01
         - -2.5227095078151122e-02
         - -3.1309458884669655e-01
         - 1.5318430365349309e-01
         - -6.5831880564189715e-01
         - 8.8973848351461493e-02
         - 2.6980320408806872e-02
         - 2.6958223765903258e+00
         - 2.2059595597399482e-02
         - -1.3595210186985831e+00
         - -7.3028105489798073e-02
         - -1.3939644166593729e-01
         - -1.9115845179565250e+00
         - -2.9051069928221072e+00
         - -3.2114097060741966e+00
         - -4.8873572843489894e+00
         - 1.4610499844019526e-01
         - 2.8423617751194028e+00
         - -2.6326219655161476e-01
         - 1.2561952946246366e+00
         - 2.2541211571979876e+00
         - 1.4386251896166055e-01
         - 3.7132660978956475e+00
         - 3.2893502187856294e+00
         - 1.9955184439333090e-01
         - -5.3635315984427034e-01
         - 7.6061631008145214e-01
         - 1.3598323541991171e+00
         - 3.0720915332509241e-01
         - -1.6632702923780214e+00
         - 4.8315802006250758e-01
         - -5.2519007693618902e-01
         - -3.2207152149802742e-01
         - 5.4478817336497287e-01
         - 3.8033731125308861e+00
         - 4.7943750161455867e+00
         - -2.8046341417474117e+00
         - -1.0169764472003004e+00
         - -7.4864082305610113e-01
         - -3.8120363752102491e+00
         - -1.5069003366758327e+00
         - 5.5977828037743569e+00
         - -1.7010128082614699e+00
         - 5.5537714494686120e-02
         - 5.1366033219809237e+00
         - -1.3002302388032336e+00
         - 2.4192898170492190e+00
         - 5.4817843828079962e+00
         - 2.6738289014907699e+00
         - -1.5631099865342863e+00
         - 7.0744343218397674e+00
         - 1.3389391602193588e+00
         - 2.5357066311853402e+00
         - -2.2069104926582748e+00
         - 2.3617517353926405e+00
         - -8.9257103436053475e-01
         - 9.6799221048703796e-02
         - -2.1895254546165868e+00
         - -2.5148767197971699e-03
         - -2.0440845038188529e-01
         - -6.6245785278322189e-01
         - 2.5486402614300729e+00
         - 3.4542293066328140e+00
         - 6.1494763497249672e-01
         - -1.2785012279861279e+00
         - -8.3033846030928649e-01
         - -1.5684108460420874e+00
         - -1.4559591025790213e+00
         - -2.0217798610456370e+00
         - 4.4927822904998926e-01
         - 2.6335988904802217e+00
         - -4.5596866330745522e-01
         - 4.4964554206435831e-01
         - -6.3425513339139294e-01
         - 1.8673827262861145e-01
         - -1.5297823313005605e+00
         - -1.1890311978978725e-01
         - -1.6781999865078558e+00
         - -9.7033823895484650e-01
         - 2.3099745917045218e+00
         - 1.4236843058705307e-02
         - -4.1520640622257526e-01
         - 9.1174045442194351e-01
         - 1.1723835210755782e+00
         - -1.0294615106269975e+00
         - -1.6982438551215873e+00
         - -4.8693776936924138e+00
         - -5.8174538262256137e-01
         - 6.6041120374085596e+00
         - 1.4928966581725600e+00
         - -3.3215832129537373e+00
         - 3.1723907991643858e+00
         - 3.6400826751849196e+00
         - 1.7476930254480905e-01
         - 1.0143788525863559e-01
         - -3.9900859026618685e+00
         - -1.0926905953559247e-01
         - 3.9325474434802055e-01
         - -1.7941921043826847e+00
         - 2.0470709454605460e+00
         - -1.2215759845141634e+00
         - -3.7887461889387959e+00
         - -2.0682968920364333e+00
         - -1.7965375729798998e+00
         - -6.1713794211124862e-01
         - 5.5610408386447728e-02
         - 8.1751703353651020e-02
         - -9.5807850942721751e-01
         - 6.4127107235132552e-01
         - -3.7277568045998088e-01
         - -3.4284088360966969e+00
         - -2.2594760147999264e+00
         - 4.1788260308183434e+00
         - -2.7892532836603329e-01
         - -2.7142932092731668e-02
         - 2.3046859278885279e-01
         - 2.5034526668232764e+00
         - 2.5092065853768686e-01
         - 8.1160367864570515e-01
         - -5.0165632579230595e+00
         - 9.7187190606586127e-01
         - -1.8071656373821310e-01
         - 7.2813155357707238e-01
         - -2.0179077321522789e+00
         - -2.5012346453827949e+00
         - -4.0538182460373422e+00
         - 4.4336890691877118e+00
         - 3.6688043238211077e-01
         - -1.4320773722845588e+00
         - -9.9632206268725554e-01
         - -1.3858516484569212e+00
         - -1.4721633882150937e+00
         - 4.1969506411330591e-02
         - 1.6337362424666675e+00
         - 4.0136968762355313e-01
         - 5.0638117641464353e-01
         - 3.2323757972028072e-01
         - 2.3393096163203664e+00
         - 4.8584259943775066e-01
         - 1.6064546011115053e+00
         - -6.6318096526520010e-01
         - -1.2681000666380422e+00
         - 7.8323215163125559e-01
         - 4.7104287152745172e-01
         - 1.1195876744849007e+00
         - -3.0969370167576971e+00
         - 2.5410056469009814e+00
         - -3.9768883501666363e+00
         - 2.3716387623566453e+00
         - -3.6187000639780020e+00
         - 3.5968889955533419e+00
         - 2.8302102093070185e+00
         - 6.8134299358786210e-01
         - -7.8375712906301942e-01
         - 2.9749205412469842e-01
         - -1.8794189025605046e-01
         - -9.2168975668755737e-01
         - 1.3457356201480286e+00
         - -4.6840389028570117e-01
         - -3.8500360590191742e+00
         - 8.7303094556424798e-01
         - 3.2806160543704816e+00
         - 9.9378468949649912e-01
         - 2.0622596300460940e+00
         - -2.4478086716491809e+00
         - -1.8503955726515819e-01
         - 3.6914103531098892e+00
         - 5.0977915974798984e+00
         - 1.0969809237466186e+00
         - -5.6713685943151426e-01
         - 4.1094244707334822e+00
         - -1.8015779557478400e+00
         - -4.8148632103063804e-01
         - -3.3262532183552649e+00
         - -1.1733512327846320e+00
         - 1.9674915684356282e+00
         - -1.8540983515911131e+00
         - -6.3809327204711275e-01
         - 1.5362204245135820e+00
         - 6.1108154147596883e-01
         - -1.0694310449457740e-01
         - -1.7150069293676558e+00
         - -3.0377952964603119e+00
         - -4.2777180480516934e+00
         - 3.1462381816590743e+00
         - 8.4092804122221709e-01
         - -1.2963470530337688e+00
         - 1.2367167318983454e+00
         - 4.2387375565352352e+00
         - -3.4804605752596662e-01
         - 3.6419189326488874e+00
         - 3.2950557003219920e+00
         - -5.3438817817998729e-01
         - -1.5458082064970147e+00
         - 9.3218659755941669e-01
         - 1.3597028240166897e+00
         - 1.3746991932401689e-01
         - -1.0309362297087497e+00
         - -9.2641714268482545e-01
         - 1.6034384719467534e-01
         - 1.8580490280552101e-01
         - -1.1385717188636881e+00
         - 2.3210748250714669e-01
         - -1.9382485784436683e+00
         - -5.3317370900620142e-01
         - 2.2515182114226531e+00
         - 1.4405002730638865e+00
         - 1.2733281743617990e+00
         - -5.8344545092194622e-01
         - 2.5917855339644247e-01
         - -1.4563058991633315e+00
         - -3.9604040380853933e-01
         - -2.3031909649445528e-01
         - -4.1626173596453877e-03
         - 6.3270442694219131e-01
         - 1.2912167261910290e+00
         - 1.4596374287840059e+00
         - -4.9679642147802383e-01
         - -1.1078371919718510e+00
         - 8.0812553208192339e-01
         - -2.2718458236378529e+00
         - 1.1354767713073298e-01
         - 2.2474572461960243e+00
         - -2.5393806631492583e-01
         - 4.8818946290364906e-01
         - -5.4204938213737386e-01
         - -5.9286769665289130e-01
         - -1.4402771148654196e+00
         - 1.3792298365998226e+00
         - 2.4638493562554342e+00
         - -2.2617431753661039e+00
         - 1.7931100091003782e+00
         - 8.1082319335780773e-01
         - -2.0142871883668714e+00
         - 5.4985812316309755e+00
         - 2.2647396623222487e+00
         - -2.4335195582647079e-01
         - -2.6451056314490362e-01
         - -1.3696149214611419e+00
         - -5.6933863372089333e-01
         - 2.0451171112506197e-01
         - -2.7517618487700308e+00
         - -1.3170399068498715e+00
         - -1.1002686941263473e+00
         - 2.8463837074627967e+00
         - 9.4485793707678134e-01
         - 4.5213492714440490e-01
         - -1.0064824392672498e+00
         - -3.8828034603117340e-01
         - -1.1802257930709008e+00
         - -9.2712576258366863e-01
         - -4.6019088364770666e-01
         - 3.0107382034524788e-01
         - 1.5080498339924431e+00
         - -5.9417767720039283e+00
         - -2.8680477365908250e+00
         - 3.1415792082474816e+00
         - -2.4741488266268488e+00
         - 1.9868736847290203e+00
         - 2.1843080759776581e+00
         - 4.6685947400923959e+00
         - 5.6162798809912229e-01
         - -2.2678225482823615e+00
         - 5.1793152873758572e+00
         - 4.4718199374529793e-01
         - -1.3148813128052115e+00
         - 1.7663468342763582e+00
         - 1.5277583592112156e+00
         - -8.0793618251404953e-01
         - -1.4211588396945485e+00
         - 9.8235393287733808e-01
         - -3.0053217811666038e+00
         - -1.5405303585723922e+00
         - -2.5477350241512240e+00
         - -1.6765084698149533e+00
         - -1.1524973523419046e+00
         - -5.0183170954167944e-01
         - 2.4619573391054006e+00
         - 1.3847204422600530e+00
         - -1.3323819697514268e+00
         - -8.3191948401846905e-01
         - 1.5057184643556865e+00
         - 1.2088044793851265e+00
         - 1.4460608063884238e-02
         - 4.5076716946512754e+00
         - -7.5831007781354742e-01
         - 3.1585103000756547e+00
         - 4.1063881359879222e+00
         - 4.3215126744984421e-02
         - 7.9984610610526263e-01
         - 1.5592618224564467e+00
         - -1.7614136456275729e+00
         - -5.1538423846564341e-01
         - 6.2795268448471064e-01
         - 1.3787627564930940e+00
         - -1.3856902302106671e+00
         - 2.2354679543730773e+00
         - -2.2622720106063338e-01
         - -7.1611663771233347e-01
         - 6.4002803200824498e-01
         - 8.2355160090999069e-01
         - 1.7789005472556212e+00
         - 6.0333180791422880e-01
         - 4.2162804172148460e+00
         - -2.3546931294708112e-01
         - -6.1098513181394344e-03
         - -1.4260768563856163e+00
         - -2.3809195167781891e+00
         - -4.5385091286698422e+00
         - 1.4507554926929345e+00
         - -1.4674775190723173e+00
         - -2.7231495555816332e-01
         - -2.4684802192702013e-03
         - 1.0099921932265967e+00
         - -7.7106590969371902e-01
         - 1.8325607759831806e+00
         - 1.4523585873716109e+00
         - -1.6189438175599575e+00
         - -1.6805481457632323e+00
         - -7.6281506168480384e-01
         - 1.5081147056689578e-01
         - 1.3785353201994510e+00
         - 1.6141415812642425e-02
         - -2.4236450922996922e-01
         - -2.0639425621342227e+00
         - -1.5989566013022634e+00
         - 1.6865765733897631e+00
         - 4.2921671918350119e+00
         - -3.3141332851600800e+00
         - -1.3938998408041587e+00
         - 1.1321673702852610e+00
         - -1.3159861283774779e-01
         - -1.3195703000973709e+00
         - -1.5094421567235916e+00
         - -1.5640021186085571e+00
         - -5.0781707069942481e+00
         - 1.6535309655758640e-01
         - 3.5770587570533058e-01
         - -3.1004582684555837e+00
         - 6.3602184437579201e-01
         - 3.7232984665668574e+00
         - -6.0969796101140028e-01
         - -2.3144499756549908e+00
         - 1.8823664955138586e+00
         - -1.1213610299199439e+00
         - 3.1795061531612072e+00
         - 1.3293654183050030e+00
         - 1.4242437907452754e+00
         - 2.5862704114141999e+00
         - -1.3409964926302367e+00
         - -1.0580774222141704e+00
         - -1.4798241648196719e+00
         - 1.0324116969262986e+00
         - -5.0076420532979271e-01
         - -3.1261870869024548e+00
         - -1.5505048760152127e+00
         - 3.3786769698436472e+00
         - -1.1938512806000666e-01
         - 2.1398105744125567e-02
         - -1.4193042120122998e+00
         - -3.9633967179104967e+00
         - -6.1027619207728434e-01
         - 6.7149960456918334e-01
         - -7.2425503039824968e-01
         - -8.6484683146849040e-01
         - -1.4013996383161595e+00
         - -9.2259893516936170e-02
         - -5.6914387437103697e-01
         - 5.6221070316646926e-01
         - -1.8897664852912186e+00
         - -7.8005133377116487e-01
         - -1.9510907417049106e+00
         - -1.8871335743019400e+00
         - 3.4641215262063301e+00
         - 3.5275527210187905e+00
         - 1.0920735694467805e+00
         - -3.6706628012306952e+00
         - 2.1798126378616010e+00
         - 1.4428381672640662e+00
         - -1.4452510289343072e+00
         - -7.5114213893322663e+00
         - -4.0393679414927897e-01
         - 3.3474013965358740e+00
         - -1.0137957234333219e+00
         - 2.0536516089268457e+00
         - -1.3544975048246108e+00
         - -1.0241124003051061e+00
         - 2.2343363493846546e-01
         - 1.6852431015465665e+00
         - -3.1805701084707088e+00
         - -6.6509393775036785e-01
         - -1.1366807942005159e+00
         - -4.4967015777640412e-01
         - -2.8250408551151385e-01
         - 1.7856416748742092e+00
         - 3.4145869376632620e-01
         - -1.5420301719296463e-03
         - -5.8482412669315553e-01
         - 1.9667693674927795e+00
         - 3.4893655296728840e+00
         - 1.4287525867165514e+00
         - -8.8673894015661481e-01
         - 8.9540146847519897e-01
         - -1.4388793519724494e+00
         - -1.0059049850746884e+00
         - -3.0581823019050064e-01
         - -5.6489418388966124e+00
         - -8.4684484354713707e-01
         - -1.2036588658131075e+00
         - 1.3053324221080529e+00
         - -9.4158630711000524e-01
         - -4.5388888719104020e-01
         - -1.3870750773356384e+00
         - 3.4338379815028302e+00
         - -2.3498266761115132e+00
         - -4.2123278904339392e+00
         - -1.8325575384886201e+00
         - -5.1956582304563048e-01
         - -7.5360154634769161e-01
         - -9.8521118200081137e-01
         - 1.7753559590981463e+00
         - 9.8514923868108939e-01
         - 9.3652221155764153e+00
         - 3.1366066829872956e+00
         - -1.6162296934954317e+00
         - -4.3444396155489633e+00
         - -9.6019116136992722e-01
         - -4.5188288599263675e+00
         - 5.7240722985035379e+00
         - 7.6419654004436499e-01
         - -9.0279203746176346e+00
         - 1.0881780080835555e+00
         - -1.3347733419895580e+00
         - 2.3542450586171735e+00
         - -3.7650714310243303e+00
         - 1.3745923637495272e+00
         - -9.2566250851382759e-01
         - 4.2134804832467383e+00
         - 4.4886068295474324e-01
         - 3.4106882385501818e+00
         - -3.2531587120402454e+00
         - 2.6458754277147384e-01
         - -2.6040140384796309e+00
         - -2.5555868892751232e+00
         - 5.4977186136355793e-01
         - 2.6180211287911259e+00
         - 4.0063452621249862e+00
         - -5.2762238691258800e-01
         - 1.5334376234524412e+00
         - -4.0716590596371285e+00
         - -6.2380513843169241e-02
         - 1.2170390438651757e+00
         - 1.2432258630803075e+00
         - 7.8556426977885840e-01
         - -2.0893970528867598e+00
         - -1.4069143324844855e+00
         - -2.9166346343846641e+00
         - 2.0827305457037828e+00
         - -3.4639857418714182e+00
         - 2.3154304271599333e+00
         - -3.2666519653841148e+00
         - -2.6298500840671495e+00
         - -1.9623463322351813e+00
         - -1.6210627973582057e+00
         - 1.0143465507614486e+00
         - -7.1457446173392702e-01
         - -2.6692996824497423e-01
         - 1.5887933814395401e+00
         - -1.3153896527154874e+00
         - -2.8396861283890451e-01
         - 2.7810392379349715e+00
         - 1.8419550532576303e+00
         - -5.1772220660952000e+00
         - -4.8742550123623923e-01
         - 8.4571821900758182e-01
         - -1.1680416945066299e+00
         - -7.1221287340383954e+00
         - 3.8168761108574617e-01
         - 1.7616943542690319e-01
         - -7.6404185724820095e-01
         - 1.4112387299520770e+00
         - 7.0154314036886689e-01
         - 4.1742302498560246e-01
         - -1.3932602921606327e+00
         - 3.0472996773163681e+00
         - -1.8677947390685494e+00
         - -1.0683085199324920e+00
         - 1.3314667260730100e+00
         - -3.2444876862610078e-01
         - 1.1720915398587011e+00
         - -7.6310670872267658e-02
         - 4.8628901591900087e-01
         - 5.9453880030218420e-01
         - -3.0736004246018328e-01
         - 1.4655394950183516e+00
         - 3.9302643529140957e-01
         - -5.4188488023425940e-01
         - -2.4786806582086385e+00
         - -6.4832578628635573e-01
         - 9.0553020697992426e-02
         - 3.3413939823009549e+00
         - -2.9492964650899928e-01
         - -5.7868932602968375e+00
         - 2.0375232185902961e-01
         - -6.7869969529810936e-01
         - 2.8408940652974262e+00
         - -1.4934464543505801e+00
         - 1.2490318826393598e-01
         - 3.3378432018831838e-02
         - 3.9756262090026997e+00
         - -1.4135976012074178e+00
         - -7.4555333533215307e-01
         - -7.2831146273199887e-01
         - 4.0567811015723914e+00
         - -3.5256898758860300e-01
         - 3.5445787844284565e-01
         - 2.6813608115124428e+00
         - -5.0131832291936460e+00
         - 4.1713996934328774e+00
         - -4.0128337783978207e-01
         - -1.9131065559253961e+00
         - -2.9171641285141024e-03
         - -1.5161014233804443e-01
         - -3.8734042408849896e+00
         - 1.3894575366681210e+00
         - 1.6183568674445128e+00
         - -2.1833274849968234e+00
         - -1.4715486213833555e+00
         - -8.7726219983310971e-01
         - 2.7837935213820102e+00
         - 6.0970347597598273e-01
         - 1.8285110298578537e+00
         - -2.7829071134549626e+00
         - 8.2948611436640327e+00
         - 1.3940261323421661e+00
         - 3.3829582049213309e+00
         - -2.8467848902767634e+00
         - -1.4348364546778001e+00
         - -4.9665642401466448e+00
         - -5.1935443002315269e+00
         - -1.2681951060388080e-01
         - 1.2266176987745578e+00
         - -4.0459619382777934e+00
         - 1.1648418253946959e+00
         - 1.0111445152489273e+00
         - -1.9097385398722369e+00
         - -4.0604431191939871e-01
         - 2.7695397576607628e-01
         - -5.1899005001538630e+00
         - 6.1062199965248054e-01
         - 2.2288115904849586e+00
         - -6.0386280235531862e+00
         - 2.4799908903488674e-01
         - 5.3755734069649801e+00
         - -4.4311095693561517e+00
         - 5.1436897579236112e+00
         - -4.7507909035783520e+00
         - -2.4521345991384269e-01
         - -9.5939708830213877e-01
         - 4.7500183949642122e-01
         - 2.8547878731337719e+00
         - 2.0487825418977956e+00
         - 1.2404749819732760e-01
         - 7.8255739936699165e-01
         - -3.4099975431222052e-01
         - -2.6793729405489288e+00
         - 1.1275417040120344e+00
         - 4.9892579041409606e+00
         - -3.3438608249327739e+00
         - -1.0371997458681894e+00
         - 2.0538267590967201e+00
         - -5.9928353834281822e-01
         - -3.3524145360306412e-01
         - -4.0373054618782639e-01
         - -6.5699435542273577e+00
         - 5.7339218166785211e-01
         - 5.2479614248687123e-01
         - 1.6473753865959830e+00
         - 8.3763240695513597e-01
         - 9.2227244508512585e-01
         - 2.8812671048841634e+00
         - 5.5806665680307910e-01
         - -8.3627850964566153e-02
         - -5.3984174860150536e-01
         - 2.3039560431077084e-02
         - 9.1205111487148016e-01
         - 1.3966369709893942e-01
         - 5.3882995576749020e-02
         - 8.6634975316710605e-01
         - -1.3834838657302615e+00
         - -2.0736151074836040e+00
         - -3.7738537058479593e-01
         - -2.1514733906182002e+00
         - 4.0750340407368013e-01
         - -1.6137967336797472e+00
         - -3.5219090200766812e-01
         - -1.2171326387124970e+00
         - 1.2362327715733161e+00
         - 1.2052501708223093e+00
         - 1.2752279933953368e+00
         - -5.2384665700839605e-01
         - -6.3414509898624849e-01
         - 2.4684702422506244e+00
         - 7.3412508972455537e-01
         - 1.3485257251345022e+00
         - -3.3903073824412022e-01
         - 5.2998046022184353e-01
         - -3.5043907621034474e+00
         - 2.8873261351867413e-01
         - -1.8956437015725776e+00
         - 1.2878690536196071e+00
         - 1.0199429366638046e+00
         - 1.6634898246800614e-03
         - -1.3586080172531649e+00
         - 1.4695611463914271e+00
         - 4.3630263059151236e-01
         - 3.9491433596272753e-02
         - 3.6927438581601879e-01
         - -4.1121197018892355e+00
         - -2.8146097020704715e+00
         - 2.9514356787140938e+00
         - 2.7046522466988057e+00
         - 1.7387412662772468e+00
         - 1.2804907935999310e+00
         - -2.8179985037066835e-01
         - -5.7861139611001151e-02
         - 2.4791013997268513e-01
         - 2.2580486508759501e+00
         - -2.7025758986393318e+00
         - 3.2150959901732143e+00
         - 2.8137842114609675e+00
         - 2.7215858676907749e+00
         - 3.1906302644244038e+00
         - 8.1887901173634514e-01
         - 4.6977336490045413e-01
         - 8.3885959394280629e-01
         - -2.3617984072765547e-01
         - -9.0304185993482322e-01
         - -2.2967761203855361e+00
         - 9.2065251764513067e-01
         - 2.4647459986065193e-01
         - -7.6672058004135069e-01
         - 2.8597973569880422e+00
         - 2.5694297953056804e+00
         - -3.2593012947801547e+00
         - -1.7539171626169439e+00
         - 1.4222163870064597e+00
         - -1.4884163638385108e+00
         - -2.1512421712629853e-01
         - 3.8642609807456807e-01
         - -7.6566575691405542e-02
         - -2.4206240499205847e+00
         - 1.3284061965213803e-01
         - 1.9560273864913544e+00
         - -3.3842801320422402e+00
         - 4.2961964583243017e-01
         - 1.1414195835011116e-01
         - 2.7835226345249779e+00
         - 4.2304203232430609e-01
         - -4.2702890199564836e-01
         - 4.6852528235555985e-01
         - -1.3740863704739388e+00
         - 5.4422171451812495e-01
         - -4.3379228348407112e-01
         - -9.3688463439308012e-01
         - -6.9208507985027123e-01
         - 2.4641610646131915e+00
         - 1.0302552711076380e+00
         - -3.5217870757543972e+00
         - -1.2293575992447303e+00
         - -1.0733430140147442e+00
         - -1.4606158165912031e+00
         - -4.6172848087285910e-02
         - 1.7143622113765403e-01
         - -2.1366295484461517e+00
         - -3.9440115713256307e-01
         - 2.9678689840096260e+00
         - 2.3700808811928096e+00
         - 5.2596804381303625e-02
         - -1.6235639018457124e+00
         - 4.0499819975009171e-01
         - 1.4423369224838984e+00
         - 3.6067298554919958e-01
         - 1.0021372270441107e+00
         - 1.3541973176803859e+00
         - -9.2806859317654228e-02
         - 2.7706003175113190e+00
         - -2.4271651135663963e+00
         - -9.1207374868977198e-01
         - 1.8415742616852575e+00
         - -2.5316972468214521e-01
         - 7.0386274654662162e-01
         - 1.4442584561747780e+00
         - 2.4451964246199375e-03
         - 3.6224843151275485e+00
         - 3.1759625642640898e+00
         - -7.1885860251920108e-01
         - -1.6692196210594945e+00
         - 3.1539525153182157e-01
         - -9.3695426673351923e-01
         - -2.6413649413836610e-01
         - 1.2133644455247097e+00
         - 8.3079560335978964e-01
         - -2.8759051434027723e+00
         - 2.6571578676207910e+00
         - 2.8077930561180624e+00
         - 2.9442545405383824e+00
         - 3.4338475510886948e+00
         - -1.7154164397005536e+00
         - -2.5285187680592514e+00
         - -1.3586978237527900e+00
         - 7.5462037964159079e-01
         - -2.7683740009027007e+00
         - 2.1623053339335891e+00
         - 3.6806061599934420e-01
         - 1.2760482610020309e+00
         - -5.9491234101169044e-01
         - -2.6666798869108110e-01
         - -3.8831215781199535e-01
         - -7.9914668615124629e-01
         - 2.4493546836423761e+00
         - -3.4766168076519475e+00
         - -1.5876533145171803e-01
         - -2.3259548713788472e+00
         - 3.7759567433570536e+00
         - 2.2007082918109448e+00
         - -4.3983062782544879e-01
         - -9.4143960609007871e-01
         - 2.6149468464958372e+00
         - -1.6121945269574962e+00
         - 2.3069807788510936e+00
         - 3.3949581328346614e+00
         - 2.2821026264916053e-01
         - -1.1604042763750246e+00
         - -2.0581152907637925e+00
         - -1.7677492779917350e-01
         - -2.5031016674386057e+00
         - 3.6868566442211337e-01
         - -9.2054589412979682e-01
         - -1.1176435315999222e+00
         - -1.4302865167695020e+00
         - 8.3784726674451115e-01
         - 1.5002360367415621e+00
         - 3.0091346225614544e+00
         - -1.5449381285784767e+00
         - -1.0618650524803603e+00
         - 3.1395516387482325e+00
         - -3.1293047092470108e+00
         - -6.5783530611610186e-01
         - 3.9587547476363238e+00
         - 1.3734362001867459e-01
         - 3.6027351881770647e-01
         - -1.1582070774189297e+00
         - 2.9203297262772193e-01
         - -1.7652300001099466e+00
         - -4.8724615131568633e-01
         - 8.5004235331569566e-01
         - 1.6589132308100123e+00
         - -2.6305105101475488e+00
         - -4.1389828459471190e-01
         - 2.1986429817644506e+00
         - -1.9059700698442545e+00
         - 3.4607177195589173e-01
         - -7.1631963059681947e-01
         - 3.1078974057039641e+00
         - -1.0230728298082923e+00
         - 2.5292088517129663e-01
         - -5.3414606167474217e+00
         - -8.1598024715526030e-01
         - -2.0949022853474869e-01
         - -2.3115997177443015e-01
         - 1.1070909693007489e-01
         - -2.5800976412220042e+00
         - 4.0545001931654454e+00
         - 1.3958852240697606e+00
         - 9.3440529483857244e-03
         - -2.1873977434067778e-03
         - 2.8450693372577576e-02
         - -2.8263925071356694e-02
         - 1.0302117137144472e-03
         - 1.9828031857684267e-03
         - -1.2749605566356400e-02
         - -2.7864671190733669e-02
         - 1.1801178644389246e-02
         - -3.4352947262416408e-03
         - 5.0190697774791567e-03
         - 1.2790682549813493e-02
         - 3.6878916653338106e-03
         - -1.6272844223036206e-02
         - -6.0492373986939319e-03
         - -1.7197478428670105e-02
         - 4.8291791709238786e-03
         - -1.2641494618313036e-02
         - 3.8277112599727327e-03
         - 4.3727429856507943e-03
         - -2.2115714779599463e-02
         - -2.1413012039804689e-02
         - 4.4577787032860300e-03
         - 5.4451021610905283e-03
         - 1.3734801979982210e-02
         - 1.7138988984556278e-02
         - 1.5095993057950804e-02
         - -2.1637916961911734e-02
         - 1.6882204323355878e-02
         - -1.9938771952106034e-02
         - -1.4188959888668782e-02
         - -1.0012245095217897e-02
         - -6.8776010648918784e-04
         - 4.1530057003132653e-03
         - 2.7224348601359295e-02
         - 1.7211479238264044e-03
         - 1.7873433507061661e-02
         - -2.1047719758606379e-02
         - -1.3594512988659520e-02
         - 1.5133474399179256e-03
         - -1.8703190155830341e-03
         - -2.1504585691595249e-02
         - 1.4263639381272973e-02
         - -2.3639426484569889e-02
         - -2.4811980047580933e-02
         - -1.9177780351664585e-02
         - -2.4990097612557348e-02
         - -1.3250833280111880e-02
         - -9.1416055802907379e-03
         - 2.7738353578343127e-02
         - 1.2128298316845156e-03
         - 7.8462455226862380e-03
         - 2.5392286427195668e-02
         - -1.3964555148390066e-02
         - -2.0547558572432408e-02
         - -1.1918715688736593e-03
         - 2.5545659949758291e-02
         - 1.4490794255117375e-02
         - -9.8875151334158213e-03
         - -1.6581326255667137e-02
         - -4.0411077880900242e-03
         - 1.6807820810219889e-02
         - 2.2881802193724921e-02
         - -1.4495858212536638e-02
         - -6.0591815876761025e-03
         - 1.3343938889671158e-02
         - 2.0909792392598773e-03
         - 7.7535647631337863e-03
         - 3.6477818264489459e-03
         - -1.9279619941610943e-02
         - 5.7215437087359527e-03
         - 5.9222580816950853e-03
         - 1.2712645597990874e-02
         - -2.3788258098672643e-02
         - 1.6285827484953073e-02
         - -1.0044220770461919e-03
         - 8.0432383121859675e-03
         - 1.8388073809120196e-02
         - -6.7046202736805727e-03
         - 2.8760475541177648e-03
         - 1.2437895848346661e-02
         - 4.6577104573156149e-03
         - -1.4661780537524420e-02
         - -2.2536644362977896e-02
         - 3.3576454005956489e-03
         - 1.9874501090568347e-02
         - -3.7635667697329448e-03
         - -2.1462904861805559e-02
         - -3.6111953412403934e-03
         - -2.6514712823366283e-03
         - -2.1447681821952138e-02
         - 2.0455512682673468e-02
         - 1.0843631657200863e-02
         - 1.0651148438191965e-02
         - -7.9482999628387695e-03
         - 7.3090480472741077e-03
         - -4.0013297021311515e-03
         - -1.0576798506795996e-02
         - 1.3580933147992564e-02
         - 1.5177715594920737e-02
         - -3.8343682039873872e-03
         - -2.8307646980739867e-02
         - 6.7677948410353747e-03
         - 2.4409652078497082e-03
         - 1.4666289663161119e-02
         - -1.2739299552451065e-02
         - -1.1196463469379447e-02
         - 1.7406824923264046e-02
         - -1.0953567952022914e-02
         - -3.0421992320858052e-03
         - 2.6275474704223242e-02
         - -1.7247608761468605e-02
         - -8.3776257318246873e-03
         - -6.2555109297473344e-03
         - -6.0288177549803305e-03
         - 1.0117784258248412e-02
         - -2.5662630340970105e-02
         - 1.3426319739449395e-02
         - -4.6330412607552603e-03
         - -1.0847503959328235e-02
         - 8.8927014892619654e-03
         - -2.7892912059678181e-03
         - 2.0753644011291213e-02
         - 2.7380246391962826e-03
         - 1.9963991299520299e-03
         - 3.5411411813885780e-03
         - -2.3821315437567870e-02
         - 2.1101898688813805e-02
         - 1.0865471069315090e-02
         - 2.1223064545874224e-02
         - -6.6632202355316663e-03
         - 1.1513983168823773e-02
         - 2.3380057003996361e-02
         - -1.1584058532618478e-02
         - -2.3589537589252953e-02
         - -7.7485830861920963e-04
         - -1.1821142174064979e-02
         - -1.3990112478755536e-02
         - 6.7656991708637416e-03
         - 8.2509766709835258e-03
         - 1.2414742617936510e-02
         - -8.8590975995166002e-04
         - 8.1472954280285073e-03
         - -1.1889488544765963e-02
         - -2.3891159787425318e-02
         - -4.8516218471405448e-03
         - 1.4304605239359723e-02
         - -2.2732593170137295e-02
         - 2.7648751934123660e-02
         - -1.3197529290098662e-02
         - -1.5461942980576600e-02
         - 2.0198587237046484e-02
         - 1.1227889409020055e-02
         - 1.7745786075801108e-02
         - 1.3966774197930487e-02
         - -1.9722907439788356e-02
         - 1.0927082729458767e-02
         - 1.8992527738084252e-02
         - 6.6100106146177963e-03
         - 4.8831341746668434e-03
         - 5.2775137254489710e-03
         - -2.6630177803607494e-02
         - -1.1856208590865563e-03
         - -1.9004156117812289e-02
         - -1.0189555876786140e-02
         - 2.0375456854516828e-03
         - -1.7415748635815253e-02
         - 2.4780549335283786e-02
         - -6.2296829477627496e-03
         - 1.5676918707081180e-02
         - -1.0307373142441222e-02
         - 8.8805889220088027e-03
         - -2.0780682160482393e-02
         - -1.9079447400014490e-02
         - -1.9872961811979763e-02
         - 2.4142693430582451e-02
         - 1.7658025294773425e-02
         - -1.2536573602232428e-02
         - 1.7303368994408985e-02
         - -8.5965514441776348e-03
         - -1.8675408683970187e-02
         - -2.2354823995860841e-02
         - -3.4637149032535840e-03
         - -1.5622463041610711e-05
         - -2.4498173274008918e-02
         - -9.1974305532217249e-03
         - 8.0623012078124851e-03
         - 9.5717115107471253e-03
         - 6.9520339927976668e-03
         - 1.3933074524884865e-02
         - 6.4166860348988247e-03
         - -2.7832639620501056e-02
         - -7.1648497332243545e-03
         - 1.1100853965543370e-02
         - 1.7007914356931456e-02
         - -8.9403696532812417e-03
         - 1.1476110550016067e-02
         - -2.0709021126469680e-02
         - -1.9240821940630332e-02
         - -9.7885042776247738e-03
         - -2.3712155537778473e-02
         - -3.0647416848579630e-02
         - -1.3821679199787098e-02
         - -2.3128977533310079e-02
         - -1.5152072153318473e-02
         - 2.3442693332511724e-02
         - -1.3753545530943330e-02
         - 2.2358826605004638e-02
         - -2.0253772236568993e-02
         - 1.3271244295044572e-02
         - 1.4853198341110267e-02
         - -1.3599390459941130e-02
         - 2.4372517748236764e-02
         - -1.5782597786960513e-02
         - 3.7343444779886852e-03
         - -4.1428830278844803e-03
         - -1.6768846438154444e-02
         - 7.0253126642543075e-03
         - -9.5715335276689141e-04
         - 1.5463801121275919e-02
         - -2.4389425004182390e-02
         - 2.5929006429540432e-02
         - -9.9194596163184132e-03
         - -2.2808088281214153e-02
         - 2.2637453702932676e-02
         - -1.7708156040684288e-02
         - 8.1414929691053090e-04
         - 6.1018614026456068e-04
         - -2.0720399454955209e-02
         - 1.5499551448135127e-03
         - -8.6405439628850587e-04
         - 8.6705697981455821e-03
         - 1.9246589338237561e-02
         - 3.8851858570120340e-03
         - -2.2304929763625234e-02
         - 1.7884391350227357e-02
         - -1.8844677012811450e-02
         - -1.8102862524060848e-02
         - 1.8486156081219819e-02
         - 3.3241419884052952e-03
         - 1.5931191852243530e-02
         - 1.1818406048096032e-02
         - 5.7203845224405346e-03
         - 2.0045235832599494e-02
         - -2.3005531548214688e-02
         - 5.9092076038368864e-03
         - 7.8271792761904282e-03
         - 1.3974239285813900e-02
         - -1.8190705194873459e-02
         - -2.7896727281754949e-02
         - -2.0893772031802343e-02
         - 1.7153633659739157e-02
         - -1.2002681792063395e-02
         - -1.4387046147559123e-02
         - -2.5903347620723091e-02
         - 1.4398293761946127e-02
         - 1.7369760282740149e-02
         - 1.5861544627145674e-02
         - 2.7563827832552019e-02
         - 1.8533837385230095e-02
         - -1.1859201534548260e-02
         - 1.1700164265816939e-02
         - -5.2374647808298138e-03
         - -2.0824094291803211e-02
         - 5.1646910548053017e-03
         - 2.2752444852689867e-02
         - -2.0374687415317290e-02
         - -5.9761205699110104e-03
         - -3.4637434559740550e-03
         - -5.4880075728249069e-03
         - -3.7062955467464637e-03
         - -1.4520366646546689e-02
         - 1.2940438212441674e-02
         - 1.2621880359559540e-02
         - 6.5620273902581411e-04
         - 2.5287673317223265e-02
         - 3.5693256005197536e-03
         - 2.7564753785134923e-02
         - 4.7972670104458621e-03
         - -3.8282404534642957e-03
         - 1.3830486508602590e-02
         - -3.6317133361125267e-03
         - -1.3815187454585013e-02
         - 1.4906065846374626e-02
         - 2.4951222676097120e-03
         - -2.4569219089882521e-02
         - 8.6493544072980197e-03
         - 2.3647588895638273e-02
         - 1.4294657746629453e-02
         - 6.3125443968600351e-03
         - -7.7535128092350485e-03
         - 7.1881532907476357e-04
         - 2.0856517765274064e-02
         - -9.2162315122361494e-03
         - 2.4009224873070327e-02
         - 2.2386930243758197e-02
         - 1.5233125652166914e-02
         - -2.1923723670781944e-03
         - -5.2814052407457938e-04
         - 9.5613125132447182e-03
         - 3.7924993506710347e-03
         - -1.0248883391741542e-02
         - 9.5337440098613047e-03
         - 1.8115176572801737e-02
         - -2.1169831753078405e-02
         - -2.8649242107006676e-02
         - -9.1462272685972797e-03
         - -1.4109644418612260e-02
         - 2.5944485841664412e-02
         - -1.9751913765729743e-02
         - -1.3928788258921588e-02
         - -7.1048285169061217e-03
         - -1.4591858018330706e-02
         - -1.7961872017005485e-03
         - -1.6068901638356687e-02
         - -1.8808862031260892e-02
         - 1.8768284504229606e-02
         - 1.2690080535388448e-02
         - -1.7412788530941675e-02
         - -1.0293022270558077e-03
         - -2.3999432862370985e-02
         - -1.0015334986955836e-02
         - 5.9353975135991435e-03
         - -5.1439146887358005e-03
         - -2.4462406004248208e-02
         - 1.9437861976848467e-02
         - 1.7543550868190178e-02
         - 1.7749852074332311e-02
         - -1.9855805268817837e-02
         - -2.5080668707059165e-02
         - -2.4723833153638828e-02
         - 7.7558938270476533e-03
         - 2.2039465856295317e-02
         - 1.8599591083744284e-02
         - -1.1668536414782542e-02
         - -1.0581647158480149e-02
         - -1.0268345340111701e-02
         - 2.4931892784022427e-02
         - 9.7671483190161861e-04
         - -5.1087070226152657e-04
         - 2.5682317981554258e-02
         - -1.2266923428629076e-02
         - -1.8418074454543881e-02
         - 2.6820922889430020e-02
         - 1.9589307068376818e-02
         - -2.1661746635390391e-03
         - 1.6336742918061212e-02
         - -1.9181057710185224e-02
         - 7.9375531877077139e-03
         - 1.9246517172242711e-02
         - 8.2850712849793593e-03
         - 1.3427919576023994e-02
         - -1.9752012474323288e-02
         - 1.1651398651708276e-02
         - 1.3738678929263214e-02
         - 1.9118182408644116e-02
         - 6.3131967610815095e-03
         - -1.4265209022332595e-02
         - 2.3154237491170699e-02
         - 2.5375376817030747e-02
         - 2.6359112456968287e-03
         - 1.0152064616229414e-02
         - 2.1247604715536501e-03
         - -2.1009727712337424e-02
         - 2.1374370745516971e-02
         - -1.9757776573984000e-02
         - -2.3238756270367762e-02
         - 9.1302321427232519e-03
         - -2.4892788652927027e-02
         - 7.1870923361043891e-03
         - -1.0587445070017914e-02
         - -9.3530880141426374e-03
         - 8.6190741986145545e-03
         - -1.2039906601789120e-02
         - 5.3936776967578410e-03
         - 2.5638106724942124e-02
         - 1.2617609202996951e-02
         - -2.5073624765328501e-02
         - -3.9754065350572636e-04
         - -5.6727316221790247e-03
         - 9.0861926300077230e-03
         - 1.8734363815669806e-02
         - -1.1422470282642459e-02
         - 2.6054439636177894e-02
         - -1.0948242453047123e-02
         - 1.6557423166055230e-02
         - -1.9122027641297414e-02
         - -1.6174708026870346e-02
         - -1.5816958454511833e-02
         - 9.1544670334862584e-03
         - 8.2841329931993230e-04
         - 2.6415777045868949e-02
         - 2.0548996971816835e-02
         - 6.6686175611622954e-03
         - 1.7443913257679650e-02
         - 6.2700541318583911e-03
         - 4.8471447210763491e-03
         - -3.6345373975607861e-03
         - -1.3685741640078916e-02
         - -1.5348923360806383e-02
         - 9.4920345617116215e-03
         - -5.2961086684080250e-03
         - -8.3288860598988192e-03
         - 1.7647364615377518e-02
         - 1.2272499986283075e-02
         - 2.5343161634724248e-02
         - -1.1584005243583721e-02
         - 1.6551917589172158e-02
         - -1.5755564606107386e-02
         - 1.9184665401464393e-02
         - 4.8766047604289413e-04
         - -2.0041746939104068e-02
         - -1.5591386197454050e-02
         - -1.3676560961083733e-03
         - -2.0488194334557237e-02
         - -3.2845692391783345e-03
         - 8.5992388645753873e-03
         - 3.4766957713951783e-03
         - 2.2033462293221534e-02
         - -7.8591847663396185e-03
         - 2.2300339268202629e-02
         - 2.6457496545933920e-02
         - 8.8636134036527738e-03
         - -2.4933994548198307e-02
         - -1.2073197512605563e-02
         - 1.2519614651797930e-02
         - -2.8885969015296337e-03
         - -2.6346749309246308e-02
         - 1.3013450829259371e-03
         - -5.0321479396766150e-03
         - 1.0979027478514931e-02
         - 7.7774466285972788e-03
         - 2.0021597391151984e-02
         - -1.4167830744305998e-02
         - 2.5704670700232066e-02
         - 2.9644982737184362e-03
         - -3.6159336174781437e-03
         - 1.2950561264431951e-02
         - -1.8276622000607940e-02
         - -1.1266580894583305e-02
         - 2.0525770162179022e-02
         - -8.5074181428816693e-03
         - 8.5975822178185305e-05
         - -1.3669453579691942e-02
         - -2.5603905762640638e-02
         - -6.7653831480416638e-03
         - 6.2949387927249880e-03
         - -1.6407632446951124e-02
         - 1.0395294118489566e-02
         - -1.9889991244289251e-02
         - 4.8224839261145087e-03
         - 2.4925009790815432e-02
         - -2.0861811555965980e-03
         - 2.8504843205959095e-02
         - -3.2399195408040417e-03
         - -4.8498977901582501e-04
         - -1.5649957677213937e-02
         - 1.2410704422086012e-02
         - 7.1623274117207903e-04
         - 1.3805299902961046e-03
         - -5.7137706952893556e-03
         - -1.3612223530280193e-02
         - 8.5388508723673474e-03
         - 1.9251971650864684e-03
         - 1.2431478742518071e-02
         - 6.7233295669287142e-03
         - -2.1686705538955030e-02
         - 2.6671089378261566e-02
         - 2.2675679026520408e-02
         - 1.9438156715114681e-02
         - 3.7218625741113113e-03
         - 1.5284967927246873e-02
         - -3.3287642631832904e-03
         - -8.0425922545919269e-03
         - -9.8494049836042683e-03
         - 2.4457505080571526e-02
         - 2.4200630620291888e-02
         - -8.7448757085634172e-03
         - -1.7911782054475104e-03
         - -2.6314119935550113e-02
         - 1.0709609803156935e-02
         - 7.5550048669593547e-03
         - -2.2743337357359682e-02
         - -1.7323746471312979e-02
         - 1.5643913801576363e-02
         - -2.1160616594738561e-02
         - 1.9796534764534704e-02
         - 2.5236847589669063e-02
         - -1.0519838867871167e-02
         - 1.1068052745022315e-02
         - 8.4448548458915620e-04
         - -2.1253459129064244e-02
         - -2.2070216031107988e-02
         - 2.4252422689370122e-03
         - 2.4591817353141469e-02
         - -2.2108857010617159e-02
         - -8.6398407670826259e-03
         - -1.3642466612738699e-02
         - -9.1491802234480897e-03
         - 9.7660863981270159e-03
         - 2.5439065747397353e-02
         - -2.4780759620974795e-03
         - -2.2797319784841962e-02
         - 2.1670896442297055e-02
         - -1.8004839719435856e-02
         - -8.5978964282195456e-03
         - 8.6231239918685490e-03
         - 1.3543272062823238e-02
         - 4.0211114343792981e-03
         - 2.2699321198054900e-02
         - -1.4825977283428065e-02
         - 1.6331313093977298e-02
         - -2.1942292446866199e-02
         - -1.4025568943871251e-02
         - 1.8079115669778233e-02
         - -1.5330910280122652e-02
         - 2.2683051051538828e-02
         - 1.9095694397519585e-04
         - 9.4943712929530279e-03
         - 8.3432189982028688e-03
         - 1.0738641607162772e-02
         - 1.5621727634948460e-02
         - 5.4923088385095114e-03
         - 1.7922229077203856e-02
         - -6.6917143154630425e-03
         - 8.7101129169120245e-03
         - -1.6743987464220188e-02
         - -7.5703431087349171e-03
         - -1.7112335069625520e-02
         - 9.4117760984391997e-03
         - -2.2385338564206967e-02
         - 4.2649295996207192e-03
         - -1.4506611141810493e-02
         - 1.2355200113373739e-02
         - 1.9738819841305374e-02
         - -1.9759536444106669e-02
         - 2.0966944482206793e-02
         - -1.7028243676193822e-02
         - 6.3048522635751865e-03
         - 5.4955353472051919e-03
         - -1.1173397468250430e-02
         - -9.7564726374670795e-03
         - 1.9867682225393393e-02
         - -9.8817917235077633e-03
         - 1.1962270363261142e-02
         - 5.2870880060276650e-04
         - 1.5957969030821917e-02
         - 1.1822197636186259e-02
         - -2.6370858918486118e-02
         - -4.5567277313864514e-03
         - 1.7866165402246430e-02
         - -2.5072771136807739e-02
         - -1.7393356046166680e-02
         - 1.9159567793218413e-02
         - -2.7845995606245819e-02
         - -3.1934934214917568e-03
         - -1.4169780573732069e-02
         - 2.5094323245556181e-02
         - 1.3267360543380579e-02
         - -2.0594493569686838e-02
         - 1.7577426972868897e-02
         - 1.5497685888436385e-03
         - -1.9160860123264959e-02
         - 3.4585986577503089e-03
         - -1.7783126413111208e-02
         - -1.2456174584532558e-02
         - 1.3075735874226703e-02
         - -2.1272349858181092e-02
         - 1.4338731863615672e-02
         - 2.3043020390452456e-02
         - 2.6233475508496515e-02
         - 7.5632787113421246e-03
         - -9.1140280920578021e-03
         - -2.0389698387776684e-02
         - -1.9930593043197643e-02
         - 1.4522927012445943e-02
         - 4.1853146616660073e+00
         - -3.1688593006250589e+00
         - 4.1940004392428980e+00
         - 4.3044890519846986e+00
         - 5.2764231680991225e+00
         - 2.4625704575468061e+00
         - -1.0599060601659797e+01
         - 2.3694837282895462e-01
         - 2.3077342717823850e+00
         - -9.9759680647148983e+00
         - -2.6601997398062323e+00
         - 8.4035617466299151e+00
         - -3.9716533468377302e-01
         - -5.2455724933228502e+00
         - 6.3179262898804742e+00
         - 7.6607127222229758e+00
         - 1.3935603233827610e-03
         - -1.6996355837485089e+00
         - -1.4938035448565293e+01
         - 5.3653346052667183e+00
         - -4.4887181160753196e+00
         - 2.8663186518476156e+00
         - 3.0534443128019375e+00
         - -6.0645641945644169e-01
      -
         - 3.2916389386371575e-01
         - -2.7586130725774827e-01
         - -5.0613581980392597e-01
         - 2.6665425005980496e-03
         - 5.2775720355446327e-03
         - 1.4639772142625981e-01
         - -9.5574198352898931e-02
         - -1.9165794726465592e-02
         - 2.1476473947706709e-01
         - 1.0116645512207999e-01
         - 9.5631811860427796e-02
         - 1.5260326924568298e-02
         - -8.1370247825182873e-02
         - -1.2591878128231027e-02
         - -3.5949265126223824e-02
         - 1.6383851857788151e-04
         - 4.5617183228515296e-02
         - 6.1139831051728731e-02
         - 1.0399971715574557e-02
         - -1.1395090524097026e-01
         - 7.1695240316213368e-02
         - 4.1791372704878114e-02
         - -3.7876395252477608e-02
         - 9.7717083970005808e-02
         - 1.0855320047835066e-02
         - 1.4190751197387858e-01
         - 2.3278585793007746e-05
         - -2.2952368826168518e-01
         - -1.3659972170138684e-01
         - -5.4696219237425819e-02
         - 8.3454940212483772e-02
         - 4.8678046660140362e-02
         - 8.1562856050187496e-02
         - 6.4246405599688550e-01
         - 8.2764670204783397e-01
         - -5.8761070323885313e-02
         - -1.0103927699798496e-02
         - 6.3948298558486418e-04
         - 1.5726191172843113e-01
         - 2.9712212803596644e-01
         - -5.0863871350882717e-01
         - -1.0151162697628575e+00
         - -2.1237740575379280e-01
         - -1.1716688987834223e-01
         - -7.7652319009345694e-01
         - -8.5999626198284873e-01
         - 2.6886492541842855e-01
         - -2.3355030701924348e-01
         - 5.2955048090819442e-03
         - 9.2562838041456624e-02
         - -1.1351006193366496e-01
         - 5.9790452111063841e-01
         - 7.9502573494008866e-01
         - 1.7933199434404062e-01
         - 3.9936618024364594e-02
         - -7.6608400683044559e-02
         - -1.0997182179271597e-01
         - 2.5906756986701868e-01
         - -3.0713684952868814e-01
         - -3.6180758138369884e-03
         - 3.5545588804329037e-01
         - 3.0165995069208551e-01
         - 2.3985771475168940e-01
         - -3.5450151974820232e-01
         - -1.3799712976295195e-01
         - -1.7016466309325456e-01
         - -4.1586815625979107e-01
         - 2.2967798162838640e-01
         - 3.7237466893459886e-01
         - -6.6145062672231425e-01
         - 1.1369900516586455e-03
         - 7.0178790464734564e-01
         - 4.1093609029781507e-02
         - -4.8299151939209939e-01
         - -2.8982500121478771e-01
         - 3.0717313477388175e-01
         - 1.9061467125934689e-01
         - 4.7967878458534419e-01
         - 1.4318219658641712e-01
         - -7.9529957216027791e-02
         - 6.1932884729781854e-02
         - 2.4057746247312952e-03
         - -1.2194950560826117e+00
         - 1.1198270261320567e-01
         - 3.4892290348606758e-01
         - 9.4740457169381481e-02
         - 5.5504013041602041e-01
         - -4.9776346766353602e-01
         - 2.5040666985243593e-01
         - -1.7659850358324405e-01
         - -1.6027438492004850e-01
         - -6.2014260075800909e-01
         - -1.9641744977475979e-03
         - 5.4895493547991048e-01
         - -3.1102825453069061e-01
         - 3.3548373487948485e-01
         - 1.4842879173920448e-01
         - -2.0833470095718488e-02
         - 1.4648085587872476e-02
         - 6.4857489532740376e-01
         - 4.0511818790374915e-01
         - -7.0217576094439893e-01
         - -4.6280674062774890e-01
         - 5.8951093049728707e-03
         - -6.7630840281925342e-01
         - 1.8358875138640177e-01
         - 7.3583887629223022e-01
         - -7.2523363132988475e-02
         - -4.8263232878238367e-02
         - -1.2871492862529163e-02
         - 3.8926554166091892e-02
         - -2.3563533902422071e-01
         - 4.1753306140307270e-02
         - -1.8149993079442067e-01
         - -1.1852309273573979e-03
         - 1.9125849843897244e-01
         - 3.1436216839583864e-01
         - 2.9318607224698517e-01
         - -3.7966784941501169e-01
         - -2.0752101411435027e-02
         - -6.4595335327863129e-02
         - 3.5048779521914888e-02
         - 8.9533694668665800e-02
         - -2.3617166768079728e-01
         - 2.4116347666800464e-01
         - 2.2189688179721002e-03
         - -2.6748058856765644e-01
         - -1.8919558617487631e-01
         - -1.9763018458550216e-01
         - 2.6727039475772313e-01
         - 1.3020395530123782e-01
         - 1.2575235620473144e-01
         - -2.8511956522419202e-01
         - 2.4088848210291477e-01
         - 4.7485484597052169e-01
         - 1.2826873619315397e-02
         - 1.3231137003142874e-03
         - -1.6183023161383173e-01
         - 6.2626284924389597e-02
         - -1.4728454828205180e-02
         - -1.7456263512462089e-01
         - -7.8244374959966612e-02
         - -7.8851923385829123e-02
         - -4.3128836408986931e-01
         - -4.6838354003543375e-01
         - 1.2937022381120727e-01
         - -2.7334632554117505e-01
         - 2.9398056690402396e-03
         - 2.8523049013608698e-01
         - -4.8612964851189805e-01
         - 1.3265623326063564e-01
         - 4.9606925087582088e-01
         - 3.2830226670185569e-01
         - 2.8245168051304276e-01
         - 1.8056970192289745e-02
         - 3.2112433205470983e-02
         - -1.2287454321238565e-01
         - 1.2252328581663992e-01
         - 5.3904031084145935e-03
         - -1.4955128991820266e-01
         - -1.1183917984337757e-01
         - -1.1201863811106076e-01
         - 1.7077448994161618e-01
         - 8.2405562262932830e-02
         - 6.6373405090600732e-02
         - 5.5717737726444050e-01
         - -2.4176761996865162e-01
         - 2.6461067297712648e-01
         - -1.6428747694396220e-01
         - -6.3676982502751335e-05
         - 1.3867143183573694e-01
         - -6.8403848582696347e-01
         - 2.1727354432815298e-02
         - -4.6164699174451468e-01
         - 2.7864433595737831e-01
         - 2.9631474783747141e-01
         - 2.4381821915052038e-01
         - -2.1042872793446496e-01
         - -6.5656282870363403e-02
         - 3.9370745415696123e-01
         - -3.6633264820374327e-03
         - -4.4049472317826227e-01
         - -2.0367308714701779e-01
         - 4.1887020643363826e-01
         - -1.3811800461177970e-02
         - -7.2373644920737751e-02
         - -3.9801704930836575e-02
         - -7.6025318886422069e-02
         - 8.0823371657683704e-02
         - 1.0981498189059546e-01
         - -6.9133614854678116e-02
         - -1.2673798517731012e-03
         - 5.6124279400781740e-02
         - 5.3005540135679773e-03
         - -2.2402600363027946e-02
         - 5.7768812190879947e-02
         - -7.6680693106861098e-02
         - -7.0800915349171725e-02
         - -1.6117273098218515e-01
         - -3.3867908378863144e-02
         - 2.2604465680140465e-01
         - -1.7513341180456171e-01
         - 1.1123625403153978e+00
         - 1.3002606004891423e-01
         - -8.3905881755115008e-01
         - 9.7377534687738646e-02
         - -3.5612691325417345e-01
         - 4.1225346195752070e-02
         - -4.3245705804427541e-02
         - 1.5283035633410907e-01
         - 6.1537535068210758e-01
         - 5.9108360917533617e-02
         - -2.9106461142369056e-01
         - -3.7240266426342367e-03
         - 3.1717964388439873e-01
         - -2.6413250646989112e-01
         - -4.4629457609860834e-01
         - 4.2905505745380390e-01
         - -2.8675702589699775e-01
         - -2.8754227778373542e-01
         - 5.9778059237815699e-02
         - -1.6333461546381703e-01
         - 2.7782809061090478e-02
         - -4.6595938028436874e-02
         - -1.0198501864606918e-02
         - 5.4268821144237402e-02
         - 1.6970714373456544e-01
         - 1.5881413717958207e-01
         - -2.8755333763246482e-01
         - 2.6597767967572603e-02
         - 6.2855272423683588e-03
         - 3.2666007603818747e-01
         - -3.7709176619462220e-01
         - -4.1665860169691249e-01
         - 6.3859155026273581e-02
         - -5.2435889903238342e-04
         - 3.3332278032119397e-02
         - 9.8009310763162369e-02
         - 1.6169479144905946e-01
         - -1.3898037136951472e-01
         - 1.4655206350637273e-01
         - 1.0016193302923207e-01
         - 3.2034631990346668e-01
         - 7.2940974465399558e-02
         - 3.6344126155703410e-01
         - -5.3939966759136859e-01
         - 7.1039517395732170e-05
         - 6.0492871314258878e-01
         - 1.2651739458428926e-01
         - -6.4188177673864621e-01
         - -2.4903793775611305e-01
         - -5.5989139213483696e-01
         - 5.0214791435098738e-01
         - 7.7584710175104626e-02
         - -5.3844934067760345e-03
         - -1.6282362734765890e-01
         - 1.5499582080142629e-01
         - 3.4072195384591661e-03
         - -1.4630814544195847e-01
         - -1.0032911322085838e-01
         - -1.0039205883853437e-01
         - 1.0069419666394210e-01
         - 9.3731498700211260e-02
         - 8.3915660405505632e-02
         - -2.6653295359374511e+00
         - -1.4790032362311951e+00
         - -1.0707139158153056e+00
         - -2.9492170108933000e+00
         - 2.1643283432815168e-02
         - -8.0345791414366441e-01
         - -1.6334908968498811e+00
         - -7.5945446110273240e-01
         - -2.6591773612157330e+00
         - -1.3043595363925535e+00
         - -1.5677321697997320e+00
